#mdl#2#9341
#rdr#61/19/0
1:*,
18:u:Tok-1 X=%x[ 0,0],
18:u:tok-1 X=%x[ 0,1],
18:u:tok-1LL=%X[-2,0],
18:u:tok-1 L=%X[-1,0],
18:u:tok-1 R=%X[ 1,0],
18:u:tok-1RR=%X[ 2,0],
27:u:tok-2 L=%X[-1,0]/%X[ 0,0],
27:u:tok-2 R=%X[ 0,0]/%X[ 1,0],
18:*:Fst-1 X=%x[ 0,2],
18:u:Fst-1 R=%x[ 1,2],
27:u:Fst-2 X=%x[ 0,2]/%x[ 0,4],
27:u:Fst-2 R=%x[ 1,2]/%x[ 1,4],
18:*:Lst-1 L=%x[-1,3],
18:u:Lst-1 X=%x[ 0,3],
27:u:Lst-2 L=%x[-1,3]/%x[-1,6],
27:u:Lst-2 X=%x[ 0,3]/%x[ 0,6],
18:u:Pre-1 X=%x[ 0,4],
18:u:Pre-2 X=%x[ 0,5],
18:u:Pre-2 R=%x[ 1,5],
18:u:Suf-1 X=%x[ 0,6],
18:u:Suf-2 L=%x[-1,7],
18:u:Suf-2 X=%x[ 0,7],
18:u:Cap-1 L=%x[-1,8],
18:u:Cap-1 X=%x[ 0,8],
18:u:Cap-1 R=%x[ 1,8],
27:u:Cap-2 L=%x[-1,8]/%x[ 0,8],
27:u:Cap-2 R=%x[ 0,8]/%x[ 1,8],
28:u:Cap-3 L=%x[-1,18]/%x[ 0,8],
18:*:Num-1 L=%x[-1,9],
18:*:Num-1 X=%x[ 0,9],
18:u:Num-1 R=%x[ 1,9],
28:u:Num-2 R=%x[ 0,9]/%x[ 0,17],
28:u:Num-2 R=%x[ 0,9]/%x[ 0,18],
19:u:Nme-1 X=%x[ 0,10],
19:u:Loc-1 X=%x[ 0,11],
19:u:Pub-1 X=%x[ 0,12],
19:u:Jnl-1 X=%x[ 0,13],
19:u:Key-1 L=%x[-1,14],
19:u:Key-1 X=%x[ 0,14],
19:u:Key-1 R=%x[ 1,14],
28:u:Key-2 X=%x[ 0,14]/%x[ 0,8],
29:u:Key-3 L=%x[-1,18]/%x[ 0,14],
29:u:Key-3 x=%x[ 0,14]/%x[ 0,18],
19:u:Pos-1 X=%x[ 0,15],
29:u:Pos-2 L=%x[-1,15]/%x[ 0,15],
29:u:Pos-2 R=%x[ 0,15]/%x[ 1,15],
19:u:Pct-1 L=%x[-1,16],
19:u:Pct-1 X=%x[ 0,16],
19:u:Pct-1 R=%x[ 1,16],
19:u:Brk-1 L=%x[-1,17],
19:u:Brk-1 X=%x[ 0,17],
19:u:Brk-1 R=%x[ 1,17],
19:*:Tmn-1 L=%x[-1,18],
19:u:Tmn-1 X=%x[ 0,18],
19:u:Tmn-1 R=%x[ 1,18],
29:u:Tmn-2 L=%x[-1,14]/%x[ 0,18],
29:u:Tmn-2 R=%x[ 0,18]/%x[ 1,14],
28:u:Tmn-3 X=%x[ 0,18]/%x[ 0,6],
28:u:Tmn-4 R=%x[ 0,18]/%x[ 1,8],
19:u:Id--1 X=%x[ 0,19],
#qrk#19
15:citation-number,
6:author,
5:title,
7:journal,
4:date,
6:volume,
5:pages,
15:container-title,
6:editor,
8:location,
9:publisher,
3:url,
4:note,
3:doi,
10:translator,
7:edition,
16:collection-title,
4:isbn,
5:genre,
#qrk#2862
1:*,
14:u:tok-1LL=_x-2,
14:u:tok-1 L=_x-1,
11:*:Fst-1 X=N,
12:u:Fst-1 R=Lu,
13:u:Fst-2 X=N/3,
14:u:Fst-2 R=Lu/B,
14:*:Lst-1 L=_x-1,
11:u:Lst-1 X=N,
19:u:Lst-2 L=_x-1/_x-1,
11:u:Pre-1 X=3,
12:u:Pre-2 R=Be,
14:u:Suf-2 L=_x-1,
14:u:Cap-1 L=_x-1,
15:u:Cap-1 X=other,
17:u:Cap-1 R=initial,
20:u:Cap-2 L=_x-1/other,
23:u:Cap-2 R=other/initial,
20:u:Cap-3 L=_x-1/other,
14:*:Num-1 L=_x-1,
16:*:Num-1 X=double,
14:u:Num-1 R=none,
21:u:Num-2 R=double/none,
11:u:Nme-1 X=F,
11:u:Loc-1 X=F,
11:u:Pub-1 X=F,
11:u:Jnl-1 X=F,
14:u:Key-1 L=_x-1,
14:u:Key-1 X=none,
14:u:Key-1 R=none,
20:u:Key-2 X=none/other,
19:u:Key-3 L=_x-1/none,
19:u:Key-3 x=none/none,
15:u:Pos-1 X=first,
20:u:Pos-2 L=_x-1/first,
17:u:Pos-2 R=first/0,
14:u:Pct-1 L=_x-1,
14:u:Pct-1 X=none,
15:u:Pct-1 R=other,
14:u:Brk-1 L=_x-1,
14:u:Brk-1 X=none,
14:u:Brk-1 R=none,
14:*:Tmn-1 L=_x-1,
14:u:Tmn-1 X=none,
14:u:Tmn-1 R=weak,
19:u:Tmn-2 L=_x-1/none,
19:u:Tmn-2 R=none/none,
22:u:Tmn-4 R=none/initial,
11:u:Id--1 X=F,
14:u:tok-1LL=_x-1,
12:*:Fst-1 X=Lu,
14:u:Fst-2 X=Lu/B,
14:u:Fst-2 R=Lu/V,
11:*:Lst-1 L=N,
11:u:Lst-1 X=P,
13:u:Lst-2 X=P/,,
11:u:Pre-1 X=B,
12:u:Pre-2 X=Be,
11:u:Suf-1 X=,,
12:u:Suf-2 X=k,,
15:u:Cap-1 L=other,
17:u:Cap-1 X=initial,
16:u:Cap-1 R=single,
23:u:Cap-2 L=other/initial,
24:u:Cap-2 R=initial/single,
22:u:Cap-3 L=none/initial,
16:*:Num-1 L=double,
14:*:Num-1 X=none,
15:u:Num-1 R=roman,
19:u:Num-2 R=none/none,
19:u:Num-2 R=none/weak,
14:u:Key-1 L=none,
22:u:Key-2 X=none/initial,
19:u:Key-3 L=none/none,
19:u:Key-3 x=none/weak,
11:u:Pos-1 X=0,
17:u:Pos-2 L=first/0,
14:u:Pct-1 L=none,
15:u:Pct-1 X=other,
16:u:Pct-1 R=period,
14:u:Brk-1 L=none,
14:*:Tmn-1 L=none,
14:u:Tmn-1 X=weak,
19:u:Tmn-2 L=none/weak,
19:u:Tmn-2 R=weak/none,
16:u:Tmn-3 X=weak/,,
21:u:Tmn-4 R=weak/single,
14:u:Fst-2 X=Lu/V,
14:u:Fst-2 R=Lu/H,
11:*:Lst-1 L=P,
13:u:Lst-2 L=P/,,
11:u:Pre-1 X=V,
12:u:Pre-2 R=Ha,
12:u:Suf-2 L=k,,
12:u:Suf-2 X=.,,
17:u:Cap-1 L=initial,
16:u:Cap-1 X=single,
24:u:Cap-2 L=initial/single,
24:u:Cap-2 R=single/initial,
21:u:Cap-3 L=weak/single,
14:*:Num-1 L=none,
15:*:Num-1 X=roman,
20:u:Num-2 R=roman/none,
20:u:Num-2 R=roman/weak,
21:u:Key-2 X=none/single,
19:u:Key-3 L=weak/none,
13:u:Pos-2 R=0/1,
15:u:Pct-1 L=other,
16:u:Pct-1 X=period,
14:*:Tmn-1 L=weak,
22:u:Tmn-4 R=weak/initial,
14:u:Fst-2 X=Lu/H,
14:u:Fst-2 R=Lu/W,
11:u:Pre-1 X=H,
12:u:Pre-2 X=Ha,
12:u:Suf-2 L=.,,
16:u:Cap-1 L=single,
24:u:Cap-2 L=single/initial,
22:u:Cap-3 L=weak/initial,
15:*:Num-1 L=roman,
11:u:Pos-1 X=1,
13:u:Pos-2 L=0/1,
13:u:Pos-2 R=1/1,
16:u:Pct-1 L=period,
16:u:Tmn-1 R=strong,
13:u:tok-1 R=e.,,
14:u:Fst-2 X=Lu/W,
14:u:Fst-2 R=Lu/E,
13:u:Lst-2 X=P/.,
11:u:Pre-1 X=W,
12:u:Pre-2 R=E.,
11:u:Suf-1 X=.,
12:u:Suf-2 L=i,,
23:u:Cap-2 R=single/single,
21:u:Num-2 R=none/strong,
21:u:Key-3 x=none/strong,
13:u:Pos-2 L=1/1,
16:u:Tmn-1 X=strong,
21:u:Tmn-2 L=none/strong,
21:u:Tmn-2 R=strong/none,
18:u:Tmn-3 X=strong/.,
23:u:Tmn-4 R=strong/single,
13:u:Tok-1 X=E.,,
11:u:tok-1 X=e,
14:u:Fst-2 X=Lu/E,
14:u:Fst-2 R=Lu/G,
13:u:Lst-2 L=P/.,
11:u:Pre-1 X=E,
12:u:Pre-2 X=E.,
12:u:Pre-2 R=Ga,
23:u:Cap-2 L=single/single,
23:u:Cap-3 L=strong/single,
21:u:Key-3 L=strong/none,
16:*:Tmn-1 L=strong,
12:u:tok-1LL=w.,
14:u:Fst-2 X=Lu/G,
14:u:Fst-2 R=Lu/C,
11:u:Pre-1 X=G,
12:u:Pre-2 X=Ga,
12:u:Suf-2 X=e,,
11:u:Nme-1 X=T,
13:u:Pos-2 R=1/2,
11:u:tok-1 X=c,
14:u:Fst-2 X=Lu/C,
11:u:Pre-1 X=C,
12:u:Pre-2 X=C.,
12:u:Suf-2 L=e,,
11:u:Pos-1 X=2,
13:u:Pos-2 L=1/2,
13:u:Pos-2 R=2/2,
12:u:Suf-2 X=r,,
13:u:Pos-2 L=2/2,
11:u:tok-1 R=&,
11:u:Fst-1 R=P,
13:u:Fst-2 R=P/&,
11:u:Pre-2 R=&,
15:u:Cap-1 R=other,
22:u:Cap-2 R=single/other,
13:u:Key-1 R=and,
14:u:Tmn-1 R=none,
20:u:Tmn-2 R=strong/and,
22:u:Tmn-4 R=strong/other,
15:u:tok-1 X=BLANK,
11:*:Fst-1 X=P,
14:u:Fst-2 R=Lu/M,
12:u:Pre-2 R=Ma,
22:u:Cap-2 L=single/other,
22:u:Cap-3 L=strong/other,
13:u:Key-1 X=and,
20:u:Key-3 L=strong/and,
18:u:Key-3 x=and/none,
13:u:Pos-2 R=2/3,
13:u:Pct-1 X=amp,
16:u:Pct-1 R=hyphen,
19:u:Tmn-2 L=none/none,
12:u:tok-1LL=h.,
12:u:tok-1RR=m.,
14:u:Fst-2 X=Lu/M,
14:u:Fst-2 R=Lu/F,
12:u:Lst-1 X=Pd,
14:u:Lst-2 X=Pd/-,
11:u:Pre-1 X=M,
12:u:Pre-2 X=Ma,
11:u:Suf-1 X=-,
25:u:Cap-2 R=initial/initial,
11:u:Loc-1 X=T,
11:u:Pub-1 X=T,
13:u:Key-1 L=and,
11:u:Pos-1 X=3,
13:u:Pos-2 L=2/3,
13:u:Pos-2 R=3/3,
16:u:Pct-1 X=hyphen,
18:u:Tmn-2 L=and/weak,
16:u:Tmn-3 X=weak/-,
11:u:tok-1LL=&,
12:u:tok-1 R=m.,
14:u:Fst-2 X=Lu/F,
12:*:Lst-1 L=Pd,
14:u:Lst-2 L=Pd/-,
11:u:Pre-1 X=F,
12:u:Pre-2 R=M.,
12:u:Suf-2 X=m,,
25:u:Cap-2 L=initial/initial,
13:u:Pos-2 L=3/3,
16:u:Pct-1 L=hyphen,
12:u:Tok-1 X=M.,
11:u:tok-1 X=m,
14:u:Fst-2 R=Lu/I,
12:u:Pre-2 X=M.,
12:u:Pre-2 R=In,
12:u:Suf-2 L=m,,
12:u:Suf-2 X=M.,
22:u:Num-2 R=roman/strong,
14:u:Pct-1 R=none,
24:u:Tmn-4 R=strong/initial,
12:u:tok-1 L=m.,
12:u:tok-1RR=in,
12:u:Fst-1 R=Ll,
14:u:Fst-2 X=Lu/I,
14:u:Fst-2 R=Ll/d,
12:u:Lst-1 X=Ll,
14:u:Lst-2 X=Ll/n,
11:u:Pre-1 X=I,
12:u:Pre-2 X=In,
12:u:Pre-2 R=de,
11:u:Suf-1 X=n,
12:u:Suf-2 L=M.,
12:u:Suf-2 X=on,
15:u:Cap-1 R=lower,
23:u:Cap-2 R=initial/lower,
24:u:Cap-3 L=strong/initial,
11:u:Jnl-1 X=T,
16:u:Tmn-3 X=none/n,
20:u:Tmn-4 R=none/lower,
12:u:tok-1LL=m.,
12:u:tok-1 R=in,
13:u:tok-1RR=the,
12:*:Fst-1 X=Ll,
14:u:Fst-2 X=Ll/d,
14:u:Fst-2 R=Ll/i,
12:*:Lst-1 L=Ll,
14:u:Lst-2 L=Ll/n,
14:u:Lst-2 X=Ll/s,
11:u:Pre-1 X=d,
12:u:Pre-2 X=de,
12:u:Pre-2 R=in,
11:u:Suf-1 X=s,
12:u:Suf-2 L=on,
12:u:Suf-2 X=ts,
15:u:Cap-1 X=lower,
23:u:Cap-2 L=initial/lower,
21:u:Cap-2 R=lower/lower,
20:u:Cap-3 L=none/lower,
12:u:Key-1 R=in,
20:u:Key-2 X=none/lower,
13:u:Pos-2 R=3/4,
17:u:Tmn-2 R=none/in,
16:u:Tmn-3 X=none/s,
12:u:Tok-1 X=in,
12:u:tok-1 X=in,
13:u:tok-1 R=the,
16:u:tok-2 R=in/the,
14:u:Fst-2 X=Ll/i,
14:u:Fst-2 R=Ll/t,
14:u:Lst-2 L=Ll/s,
11:u:Pre-1 X=i,
12:u:Pre-2 X=in,
12:u:Pre-2 R=th,
12:u:Suf-2 L=ts,
12:u:Suf-2 X=in,
15:u:Cap-1 L=lower,
21:u:Cap-2 L=lower/lower,
12:u:Key-1 X=in,
18:u:Key-2 X=in/lower,
17:u:Key-3 L=none/in,
17:u:Key-3 x=in/none,
11:u:Pos-1 X=4,
13:u:Pos-2 L=3/4,
13:u:Pos-2 R=4/4,
13:u:Tok-1 X=the,
13:u:tok-1 X=the,
12:u:tok-1 L=in,
12:u:tok-1RR=of,
16:u:tok-2 L=in/the,
14:u:Fst-2 X=Ll/t,
14:u:Fst-2 R=Ll/s,
14:u:Lst-2 X=Ll/e,
11:u:Pre-1 X=t,
12:u:Pre-2 X=th,
11:u:Suf-1 X=e,
12:u:Suf-2 L=in,
12:u:Suf-2 X=he,
12:u:Key-1 L=in,
13:u:Pos-2 L=4/4,
17:u:Tmn-2 L=in/none,
16:u:Tmn-3 X=none/e,
12:u:tok-1LL=in,
13:u:tok-1 L=the,
12:u:tok-1 R=of,
14:u:Fst-2 X=Ll/s,
14:u:Fst-2 R=Ll/o,
14:u:Lst-2 L=Ll/e,
14:u:Lst-2 X=Ll/y,
11:u:Pre-1 X=s,
12:u:Pre-2 R=of,
11:u:Suf-1 X=y,
12:u:Suf-2 L=he,
12:u:Suf-2 X=ry,
16:u:Tmn-3 X=none/y,
12:u:Tok-1 X=of,
12:u:tok-1 X=of,
13:u:tok-1LL=the,
14:u:Fst-2 X=Ll/o,
14:u:Fst-2 R=Ll/p,
14:u:Lst-2 L=Ll/y,
14:u:Lst-2 X=Ll/f,
11:u:Pre-1 X=o,
12:u:Pre-2 X=of,
12:u:Pre-2 R=pr,
11:u:Suf-1 X=f,
12:u:Suf-2 L=ry,
12:u:Suf-2 X=of,
13:u:Pos-2 R=4/5,
16:u:Tmn-3 X=none/f,
12:u:tok-1 L=of,
14:u:Fst-2 X=Ll/p,
14:u:Fst-2 R=Ll/c,
14:u:Lst-2 L=Ll/f,
14:u:Lst-2 X=Ll/t,
11:u:Pre-1 X=p,
12:u:Pre-2 X=pr,
11:u:Suf-1 X=t,
12:u:Suf-2 L=of,
11:u:Pos-1 X=5,
13:u:Pos-2 L=4/5,
13:u:Pos-2 R=5/5,
16:u:Tmn-3 X=none/t,
12:u:tok-1LL=of,
14:u:Fst-2 X=Ll/c,
14:u:Lst-2 L=Ll/t,
11:u:Pre-1 X=c,
12:u:Suf-2 X=cs,
13:u:Pos-2 L=5/5,
14:u:Fst-2 R=Ll/a,
12:u:Pre-2 R=an,
12:u:Suf-2 L=cs,
12:u:Suf-2 X=de,
12:u:tok-1 X=an,
14:u:Fst-2 X=Ll/a,
11:u:Pre-1 X=a,
12:u:Pre-2 X=an,
12:u:Suf-2 L=de,
12:u:Suf-2 X=an,
12:u:tok-1 L=an,
14:u:Fst-2 R=Ll/m,
14:u:Lst-2 X=Ll/l,
12:u:Pre-2 R=ma,
11:u:Suf-1 X=l,
12:u:Suf-2 L=an,
12:u:Suf-2 X=al,
13:u:Pos-2 R=5/6,
16:u:Tmn-3 X=none/l,
12:u:tok-1LL=an,
14:u:Fst-2 X=Ll/m,
14:u:Lst-2 L=Ll/l,
11:u:Pre-1 X=m,
12:u:Suf-2 L=al,
12:u:Suf-2 X=nt,
11:u:Pos-1 X=6,
13:u:Pos-2 L=5/6,
13:u:Pos-2 R=6/6,
12:u:Suf-2 L=nt,
13:u:Pos-2 L=6/6,
11:u:tok-1RR=a,
14:u:Lst-2 X=Ll/g,
11:u:Suf-1 X=g,
15:u:Pct-1 R=colon,
18:u:Tmn-1 R=moderate,
16:u:Tmn-3 X=none/g,
11:u:tok-1 R=a,
14:u:Lst-2 L=Ll/g,
13:u:Lst-2 X=P/:,
11:u:Suf-1 X=:,
12:u:Suf-2 X=s:,
23:u:Num-2 R=none/moderate,
23:u:Key-3 x=none/moderate,
13:u:Pos-2 R=6/7,
15:u:Pct-1 X=colon,
18:u:Tmn-1 X=moderate,
23:u:Tmn-2 L=none/moderate,
23:u:Tmn-2 R=moderate/none,
20:u:Tmn-3 X=moderate/:,
24:u:Tmn-4 R=moderate/lower,
11:u:Id--1 X=T,
11:u:tok-1 X=a,
13:u:Lst-2 L=P/:,
14:u:Lst-2 X=Ll/a,
12:u:Pre-2 R=co,
11:u:Suf-1 X=a,
12:u:Suf-2 L=s:,
24:u:Cap-3 L=moderate/lower,
23:u:Key-3 L=moderate/none,
11:u:Pos-1 X=7,
13:u:Pos-2 L=6/7,
13:u:Pos-2 R=7/7,
15:u:Pct-1 L=colon,
18:*:Tmn-1 L=moderate,
16:u:Tmn-3 X=none/a,
11:u:tok-1 L=a,
14:u:Lst-2 L=Ll/a,
12:u:Pre-2 X=co,
13:u:Pos-2 L=7/7,
11:u:tok-1LL=a,
14:u:Fst-2 R=Ll/e,
14:u:Lst-2 X=Ll/h,
11:u:Suf-1 X=h,
16:u:Tmn-3 X=none/h,
14:u:Fst-2 X=Ll/e,
14:u:Fst-2 R=Ll/f,
14:u:Lst-2 L=Ll/h,
11:u:Pre-1 X=e,
12:u:Suf-2 L=th,
12:u:Suf-2 X=ce,
13:u:Pos-2 R=7/8,
14:u:Fst-2 X=Ll/f,
14:u:Lst-2 X=Ll/m,
11:u:Pre-1 X=f,
11:u:Suf-1 X=m,
12:u:Suf-2 L=ce,
11:u:Pos-1 X=8,
13:u:Pos-2 L=7/8,
13:u:Pos-2 R=8/8,
16:u:Tmn-3 X=none/m,
14:u:Fst-2 R=Ll/l,
14:u:Lst-2 L=Ll/m,
13:u:Pos-2 L=8/8,
14:u:tok-1LL=from,
17:u:tok-1RR=journal,
14:u:Fst-2 X=Ll/l,
11:u:Pre-1 X=l,
12:u:Suf-2 X=e.,
23:u:Cap-2 R=lower/initial,
17:u:tok-1 R=journal,
14:u:Fst-2 R=Lu/J,
12:u:Pre-2 X=Eu,
12:u:Pre-2 R=Jo,
12:u:Suf-2 L=e.,
23:u:Cap-2 L=lower/initial,
17:u:Key-1 R=journal,
22:u:Tmn-2 R=none/journal,
17:u:Tok-1 X=Journal,
17:u:tok-1 X=journal,
20:u:tok-2 R=journal/of,
14:u:Fst-2 X=Lu/J,
11:u:Pre-1 X=J,
12:u:Pre-2 X=Jo,
17:u:Key-1 X=journal,
25:u:Key-2 X=journal/initial,
22:u:Key-3 L=none/journal,
22:u:Key-3 x=journal/none,
13:u:Pos-2 R=8/9,
17:u:tok-1 L=journal,
20:u:tok-2 L=journal/of,
12:u:Pre-2 R=Cl,
17:u:Key-1 L=journal,
11:u:Pos-1 X=9,
13:u:Pos-2 L=8/9,
13:u:Pos-2 R=9/9,
22:u:Tmn-2 L=journal/none,
17:u:tok-1LL=journal,
14:u:Fst-2 R=Lu/P,
12:u:Pre-2 R=Ph,
13:u:Pos-2 L=9/9,
11:u:Fst-1 R=N,
14:u:Fst-2 X=Lu/P,
13:u:Fst-2 R=N/2,
11:u:Pre-1 X=P,
12:u:Pre-2 X=Ph,
12:u:Pre-2 R=20,
12:u:Suf-2 X=gy,
23:u:Cap-2 R=initial/other,
14:u:Num-1 R=year,
20:u:Tmn-4 R=none/other,
13:u:Fst-2 X=N/2,
13:u:Fst-2 R=N/6,
11:u:Pre-1 X=2,
12:u:Pre-2 X=20,
12:u:Suf-2 L=gy,
23:u:Cap-2 L=initial/other,
21:u:Cap-2 R=other/other,
20:u:Cap-3 L=none/other,
14:*:Num-1 X=year,
17:u:Num-1 R=numeric,
19:u:Num-2 R=year/none,
19:u:Num-2 R=year/weak,
20:u:Tmn-4 R=weak/other,
14:u:tok-1RR=_x+1,
13:u:Fst-2 R=N/3,
21:u:Cap-2 L=other/other,
20:u:Cap-3 L=weak/other,
14:*:Num-1 L=year,
17:*:Num-1 X=numeric,
22:u:Num-2 R=numeric/none,
22:u:Num-2 R=numeric/weak,
12:u:Pos-1 X=10,
14:u:Pos-2 L=9/10,
17:u:Pos-2 R=10/last,
14:u:tok-1 R=_x+1,
14:u:tok-1RR=_x+2,
14:u:Fst-1 R=_x+1,
19:u:Fst-2 R=_x+1/_x+1,
14:u:Pre-2 R=_x+1,
12:u:Suf-2 X=5.,
14:u:Cap-1 R=_x+1,
20:u:Cap-2 R=other/_x+1,
17:*:Num-1 L=numeric,
14:u:Num-1 R=_x+1,
24:u:Num-2 R=numeric/strong,
14:u:Key-1 R=_x+1,
14:u:Pos-1 X=last,
17:u:Pos-2 L=10/last,
19:u:Pos-2 R=last/_x+1,
14:u:Pct-1 R=_x+1,
14:u:Brk-1 R=_x+1,
14:u:Tmn-1 R=_x+1,
21:u:Tmn-2 R=strong/_x+1,
21:u:Tmn-4 R=strong/_x+1,
12:u:Pre-2 X=Ch,
12:u:Suf-2 X=n,,
22:u:Cap-2 L=_x-1/initial,
22:u:Cap-3 L=_x-1/initial,
17:u:Pos-2 R=first/1,
19:u:Tmn-2 L=_x-1/weak,
14:u:Fst-2 R=Lu/T,
12:u:Suf-2 L=n,,
17:u:Pos-2 L=first/1,
14:u:Fst-2 X=Lu/T,
11:u:Pre-1 X=T,
12:u:Suf-2 X=a,,
12:u:Pre-2 R=Gr,
12:u:Suf-2 L=a,,
12:u:Pre-2 X=Gr,
11:u:tok-1 X=p,
12:u:tok-1RR=p.,
12:u:tok-1 R=p.,
12:u:Suf-2 X=s,,
12:u:Suf-2 L=s,,
12:u:Suf-2 X=P.,
12:u:tok-1 L=p.,
18:u:Tmn-2 R=weak/and,
12:u:tok-1LL=p.,
18:u:Key-3 L=weak/and,
12:u:tok-1RR=j.,
14:u:Fst-2 R=Lu/D,
12:u:Pre-2 X=Wi,
14:u:Fst-2 X=Lu/D,
11:u:Pre-1 X=D,
12:u:Suf-2 X=D.,
12:u:Tok-1 X=J.,
11:u:tok-1 X=j,
13:u:Fst-2 R=N/1,
12:u:Pre-2 X=J.,
12:u:Pre-2 R=19,
12:u:Suf-2 L=D.,
12:u:Suf-2 X=J.,
12:u:tok-1 L=j.,
13:u:Fst-2 X=N/1,
14:u:Fst-2 R=Lu/A,
11:u:Pre-1 X=1,
12:u:Pre-2 X=19,
12:u:Suf-2 L=J.,
12:u:Suf-2 X=7,,
12:u:tok-1LL=j.,
14:u:Fst-2 X=Lu/A,
11:u:Pre-1 X=A,
12:u:Pre-2 X=Ap,
13:u:Fst-2 X=N/4,
11:u:Pre-1 X=4,
16:u:Pos-2 R=9/last,
21:u:Num-2 R=triple/none,
16:u:Pos-2 L=9/last,
19:u:Tmn-2 R=none/_x+1,
19:u:Tmn-4 R=none/_x+1,
14:u:Fst-2 R=Lu/R,
13:u:Lst-2 L=N/7,
11:u:tok-1 X=r,
14:u:Fst-2 X=Lu/R,
11:u:Pre-1 X=R,
12:u:Pre-2 X=Hu,
12:u:Pre-2 R=Re,
12:u:Pre-2 X=Re,
12:u:Suf-2 X=d,,
12:u:Suf-2 L=d,,
12:u:Pre-2 R=Co,
12:u:Pre-2 X=Co,
12:u:Suf-2 X=ve,
12:u:Suf-2 L=ve,
12:u:Suf-2 X=es,
13:u:tok-1RR=for,
12:u:Pre-2 R=so,
12:u:Suf-2 L=es,
12:u:Pre-2 X=so,
12:u:Pre-2 R=fo,
15:u:tok-1RR=data.,
14:u:Fst-2 R=Ll/b,
14:u:Lst-2 X=Ll/r,
12:u:Pre-2 X=fo,
11:u:Suf-1 X=r,
12:u:Suf-2 X=or,
16:u:Tmn-3 X=none/r,
13:u:tok-1 L=for,
15:u:tok-1 R=data.,
14:u:Fst-2 X=Ll/b,
14:u:Lst-2 L=Ll/r,
11:u:Pre-1 X=b,
12:u:Suf-2 L=or,
12:u:Suf-2 X=ty,
13:u:tok-1LL=for,
12:u:Pre-2 R=Am,
12:u:Suf-2 L=ty,
12:u:Suf-2 X=a.,
12:u:Pre-2 X=Am,
18:u:tok-1LL=american,
12:u:Pre-2 R=Ho,
12:u:Suf-2 X=6,,
12:u:Pre-2 X=12,
12:u:Suf-2 X=8.,
21:u:Num-2 R=year/strong,
14:u:Fst-2 X=Lu/N,
11:u:Pre-1 X=N,
12:u:tok-1RR=to,
12:u:Fst-1 R=Pi,
16:u:Fst-2 R=Pi/“,
12:u:Pre-2 X=Bi,
12:u:Suf-2 X=l.,
12:u:tok-1 R=to,
12:*:Fst-1 X=Pi,
12:u:Pre-2 R=to,
12:u:Suf-2 L=l.,
12:u:Suf-2 X=ng,
12:u:Tok-1 X=to,
12:u:tok-1 X=to,
14:u:Fst-2 R=Lu/K,
14:u:Lst-2 X=Ll/o,
12:u:Pre-2 X=to,
11:u:Suf-1 X=o,
12:u:Suf-2 L=ng,
12:u:Suf-2 X=to,
16:u:Tmn-3 X=none/o,
12:u:tok-1 L=to,
14:u:Fst-2 X=Lu/K,
14:u:Fst-2 R=Lu/Y,
14:u:Lst-2 L=Ll/o,
14:u:Lst-2 X=Ll/w,
11:u:Pre-1 X=K,
12:u:Pre-2 R=Yo,
11:u:Suf-1 X=w,
12:u:Suf-2 L=to,
16:u:Tmn-3 X=none/w,
12:u:tok-1LL=to,
14:u:Fst-2 X=Lu/Y,
14:u:Lst-2 L=Ll/w,
11:u:Pre-1 X=Y,
12:u:Pre-2 X=Yo,
26:u:Tmn-4 R=moderate/initial,
13:u:tok-1RR=and,
12:u:Pre-2 R=Po,
26:u:Cap-3 L=moderate/initial,
13:u:tok-1 R=and,
12:u:Pre-2 X=Po,
20:u:Tmn-4 R=weak/lower,
13:u:Tok-1 X=and,
13:u:tok-1 X=and,
14:u:Lst-2 X=Ll/d,
11:u:Suf-1 X=d,
12:u:Suf-2 X=nd,
20:u:Cap-3 L=weak/lower,
19:u:Key-2 X=and/lower,
16:u:Tmn-3 X=none/d,
13:u:tok-1 L=and,
14:u:Lst-2 L=Ll/d,
12:u:Suf-2 L=nd,
18:u:Tmn-2 L=and/none,
13:u:tok-1LL=and,
12:u:Lst-1 X=Pf,
16:u:Lst-2 X=Pf/”,
12:u:Pre-2 X=Bo,
13:u:Suf-1 X=”,
12:u:Tok-1 X=In,
12:*:Lst-1 L=Pf,
16:u:Lst-2 L=Pf/”,
12:u:Pre-2 R=Th,
12:u:Suf-2 X=In,
20:u:Key-2 X=in/initial,
13:u:tok-1RR=ed.,
12:u:Pre-2 X=Th,
12:u:Suf-2 L=In,
13:u:tok-1 R=ed.,
12:u:Pre-2 R=ed,
12:u:Suf-2 X=y,,
16:u:Key-1 R=editor,
21:u:Tmn-2 R=weak/editor,
13:u:Tok-1 X=ed.,
12:u:tok-1 X=ed,
12:u:Pre-2 X=ed,
12:u:Suf-2 L=y,,
12:u:Suf-2 X=d.,
16:u:Key-1 X=editor,
22:u:Key-2 X=editor/lower,
21:u:Key-3 L=weak/editor,
23:u:Key-3 x=editor/strong,
13:u:tok-1 L=ed.,
12:u:Pre-2 X=Mi,
12:u:Suf-2 L=d.,
16:u:Key-1 L=editor,
21:u:Tmn-2 L=editor/none,
13:u:tok-1LL=ed.,
17:u:tok-1RR=london:,
12:u:Pre-2 R=1-,
12:u:Suf-2 L=el,
17:u:tok-1 R=london:,
14:u:Fst-2 R=Lu/L,
12:u:Pre-2 R=Lo,
12:u:Suf-2 X=1.,
17:u:Tok-1 X=London:,
16:u:tok-1 X=london,
15:u:tok-1RR=1993.,
14:u:Fst-2 X=Lu/L,
11:u:Pre-1 X=L,
12:u:Pre-2 X=Lo,
12:u:Pre-2 R=Ro,
12:u:Suf-2 L=1.,
12:u:Suf-2 X=n:,
12:u:Suf-2 L=n:,
12:u:Suf-2 X=3.,
14:u:Fst-2 X=Lu/O,
11:u:Pre-1 X=O,
21:u:Cap-2 L=_x-1/single,
21:u:Cap-3 L=_x-1/single,
21:u:Tmn-2 L=_x-1/strong,
14:u:Fst-2 R=Lu/S,
14:u:Fst-2 X=Lu/S,
11:u:Pre-1 X=S,
12:u:Suf-2 X=t,,
12:u:Suf-2 L=t,,
12:u:Pre-2 R=Sh,
12:u:tok-1RR=g.,
14:u:Fst-2 R=Lu/N,
12:u:Pre-2 R=N.,
16:u:Key-1 R=volume,
21:u:Tmn-2 R=weak/volume,
11:u:tok-1 X=n,
12:u:Pre-2 X=N.,
16:u:Key-1 X=volume,
23:u:Key-2 X=volume/single,
21:u:Key-3 L=weak/volume,
23:u:Key-3 x=volume/strong,
12:u:Tok-1 X=G.,
11:u:tok-1 X=g,
12:u:Pre-2 X=G.,
16:u:Key-1 L=volume,
12:u:tok-1 L=g.,
12:u:Pre-2 X=We,
12:u:Suf-2 L=G.,
12:u:Pre-2 R=Ch,
12:u:tok-1 L=k.,
12:u:Suf-2 L=K.,
12:u:tok-1LL=k.,
12:u:Pre-2 R=Mu,
12:u:Pre-2 X=Mu,
22:u:Cap-2 R=lower/single,
12:u:Tok-1 X=A.,
12:u:Suf-2 X=A.,
22:u:Cap-2 L=lower/single,
12:u:tok-1 L=a.,
12:u:Pre-2 R=Si,
12:u:Suf-2 L=A.,
12:u:tok-1LL=a.,
12:u:Pre-2 X=Si,
12:u:tok-1RR=l.,
12:u:Pre-2 R=Sc,
12:u:tok-1 R=l.,
12:u:Pre-2 X=Sc,
12:u:Pre-2 R=L.,
12:u:Tok-1 X=L.,
11:u:tok-1 X=l,
12:u:Pre-2 X=L.,
12:u:Suf-2 X=L.,
12:u:tok-1 L=l.,
12:u:Pre-2 R=Ea,
12:u:Suf-2 L=L.,
12:u:tok-1LL=l.,
12:u:Pre-2 X=Ea,
12:u:Suf-2 X=l,,
12:u:Suf-2 L=l,,
21:u:Tmn-4 R=none/single,
12:u:Pre-2 R=St,
21:u:Cap-3 L=none/single,
20:u:Tmn-2 L=and/strong,
15:u:tok-1RR=appl.,
12:u:Pre-2 X=St,
15:u:Tok-1 X=Appl.,
14:u:tok-1 X=appl,
15:u:tok-1 R=phys.,
21:u:tok-2 R=appl./phys.,
13:u:tok-1RR=pp.,
13:u:Fst-2 R=N/8,
12:u:Suf-2 X=s.,
13:u:tok-1 R=pp.,
13:u:Fst-2 X=N/8,
11:u:Pre-1 X=8,
12:u:Pre-2 R=pp,
12:u:Suf-2 L=s.,
21:u:Cap-2 R=other/lower,
14:u:Key-1 R=page,
19:u:Tmn-2 R=weak/page,
12:u:Suf-2 X=p.,
21:u:Cap-2 L=other/lower,
21:u:Cap-2 R=lower/other,
14:u:Key-1 X=page,
20:u:Key-2 X=page/lower,
21:u:Key-3 x=page/strong,
12:u:Fst-1 R=Ps,
14:u:Fst-2 R=Ps/(,
13:u:Lst-2 X=N/4,
12:u:Pre-2 R=(2,
11:u:Suf-1 X=4,
12:u:Suf-2 L=p.,
21:u:Cap-2 L=lower/other,
15:*:Num-1 X=range,
20:u:Num-2 R=range/none,
14:u:Key-1 L=page,
16:u:Brk-1 R=parens,
16:u:Tmn-3 X=none/4,
12:*:Fst-1 X=Ps,
14:u:Fst-2 X=Ps/(,
12:u:Lst-1 X=Pe,
13:u:Lst-2 L=N/4,
14:u:Lst-2 X=Pe/),
11:u:Pre-1 X=(,
12:u:Pre-2 X=(2,
11:u:Suf-1 X=),
15:*:Num-1 L=range,
21:u:Num-2 R=year/parens,
16:u:Brk-1 X=parens,
18:u:Tmn-3 X=strong/),
12:u:Pre-2 X=Gi,
14:u:Fst-2 R=Lu/U,
14:u:Fst-2 X=Lu/U,
11:u:Pre-1 X=U,
12:u:Pre-2 R=Pe,
14:u:Lst-2 X=Ll/c,
12:u:Pre-2 X=Pe,
11:u:Suf-1 X=c,
12:u:Suf-2 X=ic,
16:u:Tmn-3 X=none/c,
14:u:Lst-2 L=Ll/c,
12:u:Suf-2 L=ic,
14:u:Fst-2 R=Ll/h,
14:u:Fst-2 X=Ll/h,
11:u:Pre-1 X=h,
14:u:Lst-2 X=Ll/k,
11:u:Suf-1 X=k,
16:u:Tmn-3 X=none/k,
14:u:Lst-2 L=Ll/k,
18:u:Tmn-2 R=none/and,
18:u:Key-3 L=none/and,
12:u:Suf-2 X=re,
12:u:Suf-2 L=re,
12:u:Pre-2 R=Im,
12:u:Suf-2 X=rt,
12:u:Pre-2 X=Im,
12:u:Pre-2 R=So,
15:u:Tok-1 X=South,
15:u:tok-1 X=south,
12:u:Pre-2 X=So,
20:u:tok-1LL=structure,,
15:u:tok-1 L=south,
12:u:Pre-2 R=Me,
12:u:Pre-2 X=Me,
12:u:Pre-2 R=Pl,
12:u:Pre-2 X=Pl,
17:u:tok-1 X=science,
19:u:tok-1 L=planetary,
13:u:tok-1RR=no.,
14:u:Fst-2 R=Ll/v,
12:u:Pre-2 R=vo,
19:u:tok-1LL=planetary,
13:u:tok-1 R=no.,
12:u:tok-1RR=9,,
14:u:Fst-2 X=Ll/v,
11:u:Pre-1 X=v,
12:u:Pre-2 X=vo,
14:u:Fst-2 X=Ll/n,
13:u:Fst-2 R=N/9,
11:u:Pre-1 X=n,
22:u:Key-2 X=volume/lower,
13:u:tok-1 L=no.,
13:u:Fst-2 X=N/9,
11:u:Pre-1 X=9,
12:u:Suf-2 L=o.,
21:u:Tmn-2 L=volume/weak,
13:u:tok-1LL=no.,
12:u:Pre-2 R=p.,
12:u:Suf-2 X=t.,
24:u:Key-2 X=volume/initial,
21:u:Tmn-2 R=strong/page,
22:u:Tmn-4 R=strong/lower,
12:u:Tok-1 X=p.,
12:u:Pre-2 X=p.,
22:u:Cap-3 L=strong/lower,
21:u:Tmn-2 L=page/strong,
16:*:Num-1 X=single,
21:u:Num-2 R=single/none,
12:u:Suf-2 X=o,,
16:*:Num-1 L=single,
12:u:Pre-2 R=S.,
12:u:Suf-2 L=o,,
11:u:tok-1 X=s,
12:u:Pre-2 X=S.,
21:u:Key-2 X=page/single,
12:u:Suf-2 X=g,,
12:u:Suf-2 L=g,,
12:u:Pre-2 X=el,
14:u:Fst-2 R=Ll/r,
12:u:Pre-2 R=re,
14:u:Fst-2 X=Ll/r,
11:u:Pre-1 X=r,
12:u:Pre-2 X=re,
12:u:tok-1RR=by,
12:u:Suf-2 X=ns,
12:u:tok-1 R=by,
12:u:Pre-2 R=by,
12:u:Suf-2 L=ns,
12:u:Suf-2 X=ed,
12:u:Tok-1 X=by,
12:u:tok-1 X=by,
12:u:Pre-2 X=by,
12:u:Suf-2 L=ed,
12:u:Suf-2 X=by,
12:u:tok-1 L=by,
12:u:Suf-2 L=by,
12:u:tok-1LL=by,
12:u:Pre-2 R=He,
12:u:Pre-2 X=He,
12:u:Pre-2 R=Sy,
12:u:Pre-2 X=Sy,
13:u:Fst-2 X=N/5,
11:u:Pre-1 X=5,
12:u:Suf-2 X=4,,
12:u:Suf-2 L=4,,
12:u:Suf-2 X=6.,
14:u:tok-1 X=2009,
12:u:Pre-2 R=De,
12:*:Lst-1 L=Pe,
14:u:Lst-2 L=Pe/),
12:u:Pre-2 X=De,
16:u:Brk-1 L=parens,
12:u:Suf-2 X=ay,
12:u:Pre-2 R=Al,
12:u:Suf-2 X=n.,
12:u:Pre-2 X=Al,
12:u:Pre-2 R=Au,
12:u:Suf-2 L=n.,
12:u:Pre-2 X=Au,
12:u:Pre-2 R=ht,
16:u:Pos-2 R=8/last,
12:u:Pre-2 X=ht,
16:u:Pos-2 L=8/last,
12:u:Suf-2 X=ss,
12:u:Suf-2 L=ss,
12:u:Pre-2 R=sp,
12:u:Suf-2 X=ch,
12:u:Pre-2 R=on,
12:u:Suf-2 L=ch,
12:u:Pre-2 X=on,
12:u:Suf-2 X=ne,
12:u:Suf-2 L=ne,
12:u:Pre-2 R=di,
12:u:Pre-2 X=di,
12:u:Pre-2 R=En,
17:u:Tok-1 X=English,
12:u:Pre-2 X=En,
12:u:Suf-2 X=sh,
17:u:tok-1 L=english,
17:u:tok-1RR=society,
17:u:tok-1 R=society,
17:u:Tok-1 X=Society,
17:u:tok-1 X=society,
17:u:tok-1 L=society,
17:u:tok-1LL=society,
12:u:Suf-2 X=2.,
14:u:Tok-1 X=*†,
19:u:tok-2 R=*†/_x+1,
13:u:Fst-2 X=P/*,
15:u:Lst-2 X=P/†,
11:u:Pre-1 X=*,
14:u:Pre-2 X=*†,
13:u:Suf-1 X=†,
14:u:Suf-2 X=*†,
18:u:Tmn-3 X=none/†,
12:u:Lst-1 X=Lu,
14:u:Cap-1 X=caps,
19:u:Cap-2 L=_x-1/caps,
19:u:Cap-3 L=_x-1/caps,
19:u:Key-2 X=none/caps,
12:*:Lst-1 L=Lu,
14:u:Cap-1 L=caps,
13:u:tok-1 R=les,
12:u:Pre-2 R=Le,
12:u:Pre-2 X=Le,
12:u:tok-1 R=de,
12:u:Suf-2 X=rs,
12:u:Tok-1 X=de,
12:u:tok-1 X=de,
12:u:tok-1 L=de,
15:u:Lst-2 X=Ll/é,
12:u:Suf-1 X=é,
17:u:Tmn-3 X=none/é,
12:u:tok-1LL=de,
12:u:tok-1RR=et,
12:u:tok-1 R=et,
12:u:Pre-2 R=et,
12:u:Suf-2 X=ls,
12:u:Tok-1 X=et,
12:u:tok-1 X=et,
12:u:Pre-2 X=et,
12:u:Suf-2 X=et,
12:u:tok-1 L=et,
12:u:Suf-2 L=et,
12:u:tok-1LL=et,
12:u:Fst-1 R=Pf,
12:u:Suf-2 X=ue,
12:u:Suf-2 L=ue,
19:u:Tmn-2 R=strong/in,
18:u:Tmn-3 X=strong/,,
20:u:tok-1LL=historique,
13:u:tok-1RR=10,,
19:u:Key-3 L=strong/in,
12:u:Pre-2 R=10,
17:u:Tmn-2 L=in/weak,
12:u:Pre-2 X=10,
16:u:Num-1 R=double,
13:u:Lst-2 X=N/9,
12:u:Pre-2 R=(1,
11:u:Suf-1 X=9,
12:u:Suf-2 L=0,,
16:u:Tmn-3 X=none/9,
12:u:Pre-2 X=(1,
12:u:Suf-2 X=),,
12:u:Suf-2 L=),,
12:u:Pre-2 R=Da,
14:u:Cap-1 R=caps,
22:u:Cap-2 R=initial/caps,
19:u:Tmn-4 R=none/caps,
22:u:Cap-2 L=initial/caps,
22:u:Cap-2 R=caps/initial,
19:u:Cap-3 L=none/caps,
22:u:Cap-2 L=caps/initial,
12:u:Pre-2 R=ar,
12:u:Suf-2 X=at,
12:u:Pre-2 X=ar,
12:u:Suf-2 L=at,
12:u:Pre-2 R=ca,
12:u:Suf-2 X=ll,
12:u:Suf-2 L=ll,
12:u:Suf-2 X=er,
12:u:Pre-2 X=pa,
12:u:Suf-2 L=er,
12:u:Suf-2 X=ld,
12:u:Suf-2 L=ld,
11:u:Pre-2 R=A,
11:u:Tok-1 X=A,
14:u:Lst-2 X=Lu/A,
11:u:Pre-2 X=A,
11:u:Suf-1 X=A,
11:u:Suf-2 X=A,
22:u:Cap-2 R=single/lower,
16:u:Tmn-3 X=none/A,
14:u:Lst-2 L=Lu/A,
11:u:Suf-2 L=A,
22:u:Cap-2 L=single/lower,
12:u:Suf-2 X=is,
12:u:Suf-2 L=is,
11:u:tok-1RR=:,
11:u:tok-1 L=:,
11:u:Suf-2 L=:,
14:u:Fst-2 R=Lu/O,
24:u:Tmn-4 R=moderate/other,
24:u:Cap-3 L=moderate/other,
14:u:tok-1 X=2008,
12:u:Suf-2 L=3,,
17:u:Num-1 R=ordinal,
17:*:Num-1 X=ordinal,
22:u:Num-2 R=ordinal/none,
17:*:Num-1 L=ordinal,
12:u:Suf-2 X=ge,
12:u:Suf-2 L=ge,
11:u:tok-1RR=5,
13:u:Lst-2 X=N/5,
11:u:Suf-1 X=5,
16:u:Tmn-3 X=none/5,
14:u:tok-1 X=june,
12:u:Pre-2 X=Ju,
12:u:tok-1RR=at,
19:u:Tok-1 X=Available,
19:u:tok-1 X=available,
12:u:tok-1 R=at,
12:u:Pre-2 X=Av,
12:u:Pre-2 R=at,
12:u:Suf-2 X=le,
12:u:Tok-1 X=at,
12:u:tok-1 X=at,
19:u:tok-1 L=available,
19:u:tok-1RR=[accessed,
12:u:Pre-2 X=at,
12:u:Suf-2 L=le,
19:u:tok-1LL=available,
12:u:tok-1 L=at,
19:u:tok-1 R=[accessed,
14:u:Fst-2 R=Ps/[,
12:u:Pre-2 R=[a,
18:u:Key-1 R=accessed,
32:u:Brk-1 R=opening-square-bracket,
23:u:Tmn-2 R=none/accessed,
12:u:tok-1LL=at,
14:u:Fst-2 X=Ps/[,
11:u:Pre-1 X=[,
18:u:Key-1 X=accessed,
23:u:Key-3 x=accessed/none,
18:u:Key-1 L=accessed,
23:u:Tmn-2 L=accessed/none,
18:u:Tok-1 X=February,
18:u:tok-1 X=february,
19:u:tok-1LL=[accessed,
12:u:Pre-2 X=Fe,
32:u:Brk-1 R=closing-square-bracket,
14:u:tok-1 X=2016,
14:u:Lst-2 X=Pe/],
11:u:Suf-1 X=],
37:u:Num-2 R=year/closing-square-bracket,
32:u:Brk-1 X=closing-square-bracket,
18:u:Tmn-3 X=strong/],
12:u:Pre-2 R=An,
12:u:Pre-2 X=An,
12:u:Suf-2 X=r.,
12:u:Suf-2 L=r.,
12:u:Pre-2 R=Cu,
12:u:Pre-2 X=Cu,
12:u:Pre-2 R=Hi,
12:u:Pre-2 R=Na,
12:u:Pre-2 X=Na,
12:u:Suf-2 X=y:,
25:u:Tmn-4 R=moderate/single,
25:u:Cap-3 L=moderate/single,
18:u:tok-1RR=research,
18:u:tok-1 R=research,
18:u:Tok-1 X=Research,
18:u:tok-1 X=research,
12:u:Pre-2 R=Pr,
18:u:tok-1 L=research,
12:u:Pre-2 X=Pr,
14:u:Suf-2 X=.”,
20:u:Tmn-3 X=strong/”,
18:u:tok-1LL=research,
14:u:Suf-2 L=.”,
12:u:Suf-2 X=ag,
14:u:tok-1RR=eds.,
21:u:Key-1 R=proceedings,
21:u:tok-1 X=proceedings,
14:u:tok-1 R=eds.,
12:u:Pre-2 R=Ed,
21:u:Key-1 X=proceedings,
29:u:Key-2 X=proceedings/initial,
23:u:Tmn-2 R=strong/editor,
13:u:tok-1 X=eds,
12:u:Pre-2 X=Ed,
21:u:Key-1 L=proceedings,
24:u:Key-2 X=editor/initial,
23:u:Key-3 L=strong/editor,
14:u:tok-1 L=eds.,
12:u:Suf-2 X=rd,
14:u:tok-1LL=eds.,
12:u:Suf-2 L=rd,
12:u:Pre-2 X=Ri,
12:u:Pre-2 R=Tr,
12:u:Pre-2 X=Tr,
12:u:Suf-2 X=r:,
12:u:Suf-2 L=r:,
20:u:Cap-2 R=caps/other,
12:u:Suf-2 X=0.,
20:u:Cap-2 L=caps/other,
12:u:Suf-2 L=0.,
14:u:Lst-2 X=Ll/i,
11:u:Suf-1 X=i,
16:u:Tmn-3 X=none/i,
14:u:Lst-2 L=Ll/i,
13:u:Tok-1 X=The,
16:u:Num-1 R=volume,
23:u:Brk-1 R=closing-paren,
16:*:Num-1 X=volume,
30:u:Num-2 R=volume/closing-paren,
23:u:Num-2 R=volume/strong,
23:u:Brk-1 X=closing-paren,
15:u:tok-1 R=2010.,
16:*:Num-1 L=volume,
23:u:Brk-1 L=closing-paren,
12:u:Suf-2 L=6.,
12:u:Pre-2 X=Ba,
12:u:Pre-2 R=Em,
12:u:Pre-2 X=Em,
21:u:tok-1 R=démocratie,
20:u:tok-1 X=democratie,
21:u:tok-1 L=démocratie,
12:u:tok-1 R=du,
12:u:Pre-2 R=du,
12:u:Pre-2 R=bu,
15:u:Lst-2 L=Pf/»,
12:u:Pre-2 X=bu,
12:u:Pre-2 R=Mo,
12:u:Pre-2 X=Mo,
14:u:Key-1 X=date,
20:u:Key-2 X=date/lower,
19:u:Key-3 L=weak/date,
19:u:Key-3 x=date/none,
13:u:Lst-2 X=N/1,
11:u:Suf-1 X=1,
14:u:Key-1 L=date,
16:u:Tmn-3 X=none/1,
33:u:Num-2 R=numeric/square-brackets,
25:u:Brk-1 X=square-brackets,
12:u:Suf-2 L=c,,
12:u:Pre-2 R=al,
12:u:tok-1 X=al,
12:u:Pre-2 X=al,
14:u:tok-1 L=al.,,
14:u:tok-1LL=al.,,
12:u:Suf-2 X=m.,
12:u:Suf-2 L=m.,
12:u:Suf-2 L=c.,
12:u:Suf-2 X=7.,
12:u:Suf-2 L=N,,
21:u:Tmn-4 R=strong/caps,
12:u:Pre-2 R=Ca,
21:u:Cap-3 L=strong/caps,
12:u:Pre-2 X=Ca,
12:u:Suf-2 X=E,,
12:u:Pre-2 R=Is,
12:u:Pre-2 X=Is,
20:u:Cap-2 R=other/caps,
18:u:tok-1 X=elsevier,
20:u:Cap-2 L=other/caps,
19:u:Cap-2 L=caps/caps,
13:u:Fst-2 R=N/7,
13:u:Fst-2 X=N/7,
11:u:Pre-1 X=7,
16:*:Num-1 L=triple,
12:u:Suf-2 X=).,
22:u:Cap-2 R=initial/_x+1,
21:u:Num-2 R=none/parens,
12:u:Pre-2 X=To,
12:u:Suf-2 L=).,
12:u:Pre-2 R=As,
12:u:Pre-2 X=As,
22:u:Key-2 X=date/initial,
21:u:Key-3 x=date/strong,
12:u:Pre-2 R=Ba,
12:u:tok-1 R=s.,
12:u:Tok-1 X=S.,
12:u:Suf-2 X=S.,
12:u:Suf-2 L=en,
19:u:Tmn-2 L=in/strong,
12:u:Suf-2 X=2,,
12:u:Suf-2 L=2,,
19:u:Tmn-4 R=weak/caps,
12:u:Pre-2 R=Pa,
19:u:Cap-3 L=weak/caps,
12:u:Pre-2 X=Pa,
12:u:Suf-2 L=i:,
23:u:tok-1RR=international,
23:u:tok-1 R=international,
23:u:tok-1 X=international,
12:u:Pre-2 R=la,
23:u:tok-1 L=international,
12:u:Pre-2 X=la,
23:u:tok-1LL=international,
14:u:Lst-2 X=Lu/M,
11:u:Suf-1 X=M,
16:u:Tmn-3 X=none/M,
12:u:Pre-2 X=Li,
12:u:Pre-2 R=Ge,
12:u:Pre-2 X=Ge,
15:u:Key-1 R=roman,
15:u:Key-1 X=roman,
20:u:Key-2 X=roman/caps,
15:u:Key-1 L=roman,
20:u:Cap-2 R=lower/caps,
20:u:Cap-2 L=lower/caps,
12:u:Pre-2 X=27,
12:u:tok-1RR=e.,
13:u:tok-1RR=al.,
13:u:Tok-1 X=al.,
16:u:tok-2 L=et/al.,
12:u:Suf-2 X=I,,
19:u:Tok-1 X=Flaubert.,
18:u:tok-1 X=flaubert,
21:u:tok-1LL=pierre-marc,
13:u:tok-1 L=de.,
17:u:tok-1RR=secrets,
23:u:tok-2 L=de./flaubert.,
23:u:tok-2 R=flaubert./les,
12:u:Pre-2 X=Fl,
12:u:Suf-2 X=me,
15:u:tok-1 X=paris,
12:u:Suf-2 X=us,
12:u:Suf-2 L=us,
14:u:tok-1 X=2004,
13:u:Pre-2 X=n°,
12:u:Suf-2 X=9.,
12:u:Suf-2 L=9.,
12:u:Pre-2 R=Sp,
12:u:Suf-2 X=.:,
12:u:Pre-2 X=Sp,
12:u:Pre-2 R=Un,
12:u:Pre-2 X=Un,
12:u:Pre-2 R=or,
12:u:Suf-2 X=h.,
12:u:Pre-2 X=IS,
12:u:Suf-2 L=h.,
12:u:Pre-2 R=Wa,
18:u:Tok-1 X=Warszawa,
18:u:tok-1 X=warszawa,
13:u:tok-1LL=isp,
14:u:tok-1 L=pan,,
15:u:tok-1 R=1999.,
23:u:tok-2 L=pan,/warszawa,
24:u:tok-2 R=warszawa/1999.,
12:u:Pre-2 X=Wa,
12:u:Suf-2 X=wa,
12:u:Pre-2 R=Ne,
12:u:Pre-2 X=Ne,
17:u:Key-1 R=locator,
12:u:Pre-2 X=do,
17:u:Key-1 X=locator,
23:u:Key-2 X=locator/other,
17:u:Key-1 L=locator,
21:u:Tmn-2 L=volume/none,
12:u:Pre-2 R=Dr,
12:u:tok-1RR=on,
12:u:tok-1 R=on,
12:u:Tok-1 X=on,
12:u:tok-1 X=on,
16:u:tok-2 R=on/the,
12:u:tok-1 L=on,
16:u:tok-2 L=on/the,
12:u:tok-1LL=on,
12:u:Pre-2 X=El,
12:u:Pre-2 R=Sa,
12:u:Pre-2 X=Sa,
13:u:tok-1RR=dc:,
20:u:Tmn-2 R=none/roman,
20:u:Key-3 L=none/roman,
18:u:tok-1 L=theology,
18:u:tok-1LL=theology,
12:u:Tok-1 X=An,
12:u:Suf-2 X=An,
12:u:Suf-2 L=An,
12:u:Pre-2 R=(t,
23:u:Brk-1 R=opening-paren,
14:u:Tok-1 X=(tr.,
22:u:tok-1LL=experiential,
18:u:tok-1 R=columban,
18:u:tok-1RR=heaney),,
23:u:tok-2 L=theology/(tr.,
23:u:tok-2 R=(tr./columban,
12:u:Pre-2 X=(t,
28:u:Num-2 R=none/opening-paren,
23:u:Brk-1 X=opening-paren,
18:u:Tok-1 X=Columban,
18:u:tok-1 X=columban,
14:u:tok-1 L=(tr.,
18:u:tok-1 R=heaney),,
18:u:tok-1RR=shannon:,
23:u:tok-2 L=(tr./columban,
27:u:tok-2 R=columban/heaney),,
23:u:Brk-1 L=opening-paren,
18:u:Tok-1 X=Heaney),,
16:u:tok-1 X=heaney,
14:u:tok-1LL=(tr.,
18:u:tok-1 L=columban,
18:u:tok-1 R=shannon:,
15:u:tok-1RR=irish,
27:u:tok-2 L=columban/heaney),,
27:u:tok-2 R=heaney),/shannon:,
28:u:Num-2 R=none/closing-paren,
20:u:tok-1RR=university,
20:u:tok-1 R=university,
16:u:tok-1RR=press,,
20:u:Tok-1 X=University,
20:u:tok-1 X=university,
16:u:tok-1 R=press,,
27:u:tok-2 R=university/press,,
16:u:Tok-1 X=Press,,
15:u:tok-1 X=press,
20:u:tok-1 L=university,
27:u:tok-2 L=university/press,,
20:u:tok-1LL=university,
16:u:tok-1 L=press,,
15:u:tok-1 X=state,
12:u:Suf-2 X=te,
15:u:tok-1 L=state,
12:u:Suf-2 L=te,
14:u:Suf-2 L=,”,
18:u:tok-1 R=control,,
22:u:tok-2 R=and/control,,
18:u:Tok-1 X=Control,,
17:u:tok-1 X=control,
22:u:tok-2 L=and/control,,
21:u:Tok-1 X=Proceedings,
24:u:tok-2 R=proceedings/of,
12:u:Suf-2 X=gs,
26:u:Key-3 x=proceedings/none,
21:u:tok-1 L=proceedings,
24:u:tok-2 L=proceedings/of,
12:u:Suf-2 L=gs,
26:u:Tmn-2 L=proceedings/none,
21:u:tok-1LL=proceedings,
12:u:Pre-2 R=IE,
14:u:Tok-1 X=IEEE,
14:u:tok-1 X=ieee,
14:u:Lst-2 X=Lu/E,
12:u:Pre-2 X=IE,
11:u:Suf-1 X=E,
12:u:Suf-2 X=EE,
26:u:Tmn-2 R=none/proceedings,
16:u:Tmn-3 X=none/E,
20:u:tok-1 X=conference,
14:u:tok-1 L=ieee,
14:u:tok-1RR=vol.,
14:u:Lst-2 L=Lu/E,
12:u:Suf-2 L=EE,
26:u:Key-3 L=none/proceedings,
14:u:tok-1LL=ieee,
14:u:tok-1 R=vol.,
14:u:tok-1LL=vol.,
15:u:Tok-1 X=2009.,
12:u:tok-1 X=19,
12:u:Pre-2 X=Fr,
12:u:Pre-2 R=Se,
12:u:Pre-2 X=Se,
12:u:Pre-2 R=Bu,
18:u:tok-1 X=bulletin,
12:u:Pre-2 X=Bu,
12:u:tok-1RR=la,
12:u:tok-1 R=la,
15:u:tok-2 R=de/la,
12:u:Tok-1 X=la,
12:u:tok-1 X=la,
15:u:tok-2 L=de/la,
12:u:Suf-2 X=la,
12:u:tok-1 L=la,
12:u:Suf-2 L=la,
13:u:Tok-1 X=In:,
12:u:tok-1LL=la,
21:u:Key-3 x=in/moderate,
13:u:tok-1 L=in:,
13:u:tok-1LL=in:,
12:u:Suf-2 X=no,
12:u:Pre-2 R=(e,
12:u:Suf-2 L=no,
21:u:Tmn-2 R=none/editor,
12:u:Pre-2 X=(e,
21:u:Key-3 L=none/editor,
12:u:Suf-2 X=a:,
12:u:Suf-2 L=a:,
12:u:Suf-2 L=d:,
12:*:Fst-1 X=Pd,
22:u:Tok-1 X=Renaissance.,
14:u:tok-1RR=anja,
30:u:tok-2 L=english/renaissance.,
26:u:tok-2 R=renaissance./ed.,
15:u:tok-1RR=2013.,
15:u:tok-1 R=2013.,
20:u:Key-3 x=roman/weak,
12:u:Suf-2 L=C,,
12:u:Suf-2 X=ar,
12:u:Suf-2 L=ar,
12:u:Suf-2 X=):,
12:u:Pre-2 R=Vo,
12:u:Pre-2 X=Vo,
13:u:Fst-2 R=P/",
13:u:Fst-2 X=P/",
11:u:Pre-1 X=",
20:u:Cap-2 R=caps/lower,
20:u:Cap-2 L=caps/lower,
12:u:Pre-2 R=po,
12:u:Pre-2 X=po,
12:u:Suf-2 X=-1,
12:u:Pre-2 R=La,
12:u:Pre-2 X=La,
12:u:Suf-2 X=A,,
12:u:Suf-2 L=A,,
12:u:Pre-2 R=Vi,
20:u:Num-2 R=idnum/none,
12:u:Suf-2 L=".,
12:u:Pre-2 R=No,
12:u:Pre-2 X=No,
12:u:Pre-2 R=Fu,
12:u:Pre-2 X=Fu,
12:u:Pre-2 R=tr,
22:u:tok-1RR=meteoritics,,
21:u:Tok-1 X=(abstract).,
18:u:tok-1 X=abstract,
22:u:tok-1 R=meteoritics,,
34:u:tok-2 R=(abstract)./meteoritics,,
12:u:Pre-2 X=(a,
12:u:Pre-2 X=bo,
12:u:Suf-2 L=g.,
14:u:Fst-2 X=Pd/-,
11:u:Pre-1 X=-,
12:u:Pre-2 R=(E,
31:u:Num-2 R=numeric/closing-paren,
18:u:Tok-1 X=Cousset,,
17:u:tok-1 X=cousset,
14:u:tok-1LL=(pp.,
19:u:tok-1 L=167-193).,
16:u:tok-1 R=suisse,
28:u:tok-2 L=167-193)./cousset,,
25:u:tok-2 R=cousset,/suisse,
15:u:tok-1 X=soins,
12:u:Pre-2 X=Ja,
12:u:Pre-2 X=Cr,
12:u:Pre-2 R=ve,
12:u:Pre-2 X=ve,
17:u:tok-1 L=mishra,,
23:u:tok-2 L=mishra,/appl.,
15:u:tok-1 R=lett.,
15:u:Tok-1 X=Lett.,
14:u:tok-1 X=lett,
12:u:Suf-2 X=e:,
12:u:Suf-2 L=e:,
12:u:tok-1 X=14,
18:u:tok-1 L=language,
24:u:Tmn-2 R=strong/locator,
13:u:tok-1 X=doi,
14:u:tok-1 L=doi:,
12:u:Pre-2 R=81,
12:u:Pre-2 X=81,
19:u:Tok-1 X=Longmans,,
18:u:tok-1 X=longmans,
17:u:tok-1LL=81-131,,
18:u:tok-1 L=208-241.,
16:u:tok-1 R=green,,
28:u:tok-2 L=208-241./longmans,,
26:u:tok-2 R=longmans,/green,,
16:u:Tok-1 X=Green,,
15:u:tok-1 X=green,
18:u:tok-1LL=208-241.,
19:u:tok-1 L=longmans,,
13:u:tok-1RR=co.,
26:u:tok-2 L=longmans,/green,,
20:u:tok-2 R=green,/and,
12:u:Suf-2 L=ra,
16:u:tok-1LL=indian,
21:u:tok-1 L=specimens.",
16:u:tok-1 R=aldona,
19:u:tok-1RR=jonaitis,,
24:u:tok-2 L=specimens."/in,
19:u:tok-2 R=in/aldona,
13:u:Lst-2 L=P/",
12:u:Suf-2 L=.",
12:u:Suf-2 X=na,
12:u:Suf-2 L=na,
11:u:tok-1 X=2,
18:u:tok-1RR=national,
18:u:tok-1 R=national,
18:u:Tok-1 X=National,
18:u:tok-1 X=national,
18:u:tok-1 L=national,
14:u:tok-1RR=2005,
21:u:Tok-1 X=Capitalism,,
20:u:tok-1 X=capitalism,
21:u:tok-1 L=schumpeter,,
19:u:tok-1 R=socialism,
33:u:tok-2 L=schumpeter,/capitalism,,
31:u:tok-2 R=capitalism,/socialism,
19:u:tok-1RR=democracy,
19:u:tok-1 R=democracy,
19:u:Tok-1 X=Democracy,
19:u:tok-1 X=democracy,
28:u:Num-2 R=year/closing-paren,
20:u:Cap-2 R=lower/_x+1,
17:u:Key-1 X=edition,
13:u:Pos-2 R=1/3,
13:u:Pos-2 L=1/3,
13:u:Pos-2 L=6/8,
15:u:tok-2 R=j./g.,
15:u:tok-2 L=j./g.,
19:u:Tok-1 X=Victorian,
19:u:tok-1 X=victorian,
20:u:tok-1RR=commission,
20:u:tok-1 X=commission,
21:u:tok-1 L=employment,,
23:u:tok-1 R=multicultural,
31:u:tok-2 L=employment,/victorian,
33:u:tok-2 R=victorian/multicultural,
20:u:Tok-1 X=Melbourne.,
19:u:tok-1 X=melbourne,
17:u:tok-1 L=veohrc,,
28:u:tok-2 L=veohrc,/melbourne.,
25:u:tok-2 R=melbourne./_x+1,
14:u:Lst-2 X=Lu/N,
11:u:Suf-1 X=N,
16:u:Tmn-3 X=none/N,
14:u:Lst-2 L=Lu/N,
12:u:Tok-1 X=La,
21:u:tok-1LL=rosanvallon,
21:u:tok-1RR=inachevée.,
16:u:tok-2 L=p.,/la,
24:u:tok-2 R=la/démocratie,
13:u:Pre-2 R=Dé,
12:u:Suf-2 X=La,
13:u:Pre-2 X=Dé,
12:u:Suf-2 L=La,
16:u:tok-1RR=paris,,
16:u:tok-1 R=paris,,
16:u:Tok-1 X=Paris,,
16:u:tok-1 L=paris,,
12:u:Suf-2 X=os,
13:u:tok-1 R=n°,
11:u:Lst-1 X=S,
21:u:Key-3 x=volume/none,
17:u:tok-1 L=290-297,
12:u:tok-1RR=6,,
20:u:tok-2 L=290-297/et,
16:u:tok-2 R=et/n°,
12:u:Suf-2 L=97,
21:u:Tmn-2 R=none/volume,
21:u:Key-3 L=none/volume,
22:u:Key-3 x=journal/weak,
18:u:tok-1LL=journal,,
12:u:Suf-2 X=y.,
14:u:Tok-1 X=Nano,
14:u:tok-1 X=nano,
15:u:tok-1RR=2009,,
19:u:tok-2 L=al.,/nano,
20:u:tok-2 R=nano/lett.,
14:u:tok-1 L=nano,
15:u:tok-1 R=2009,,
20:u:tok-2 L=nano/lett.,
21:u:tok-2 R=lett./2009,,
15:u:tok-1RR=2014,,
15:u:tok-1 R=1997.,
16:u:tok-2 R=at/the,
16:u:tok-2 L=at/the,
12:u:tok-1 X=us,
20:u:tok-1 X=department,
12:u:Pre-2 X=NP,
21:u:tok-1RR=washington,,
21:u:tok-1 R=washington,,
21:u:tok-1LL=washington,,
12:u:Pre-2 X=Te,
12:u:tok-1RR=2,,
12:u:Tok-1 X=2,,
12:u:Pre-2 X=2,,
15:u:tok-1RR=2010,,
15:u:tok-1 R=2010,,
24:u:Num-2 R=numeric/parens,
15:u:tok-1LL=2010,,
12:u:Pre-2 R=22,
12:u:Pre-2 X=Wo,
13:u:tok-1 X=jan,
18:u:tok-1LL=wolfgang,
13:u:tok-1LL=der,
17:u:tok-1 L=grenze.,
20:u:tok-1 R=behinderte,
19:u:tok-1RR=menschen.,
21:u:tok-2 L=grenze./in:,
24:u:tok-2 R=in:/behinderte,
12:u:Pre-2 R=be,
20:u:Tok-1 X=behinderte,
20:u:tok-1 X=behinderte,
17:u:tok-1LL=grenze.,
19:u:tok-1 R=menschen.,
21:u:tok-1RR=zeitschrift,
24:u:tok-2 L=in:/behinderte,
30:u:tok-2 R=behinderte/menschen.,
12:u:Pre-2 X=be,
19:u:Tok-1 X=menschen.,
18:u:tok-1 X=menschen,
20:u:tok-1 L=behinderte,
21:u:tok-1 R=zeitschrift,
14:u:tok-1RR=für,
30:u:tok-2 L=behinderte/menschen.,
31:u:tok-2 R=menschen./zeitschrift,
14:u:Fst-2 R=Lu/Z,
12:u:Pre-2 R=Ze,
12:u:Pre-2 R=Ar,
12:u:Pre-2 X=Ar,
12:u:Pre-2 R=Wo,
21:u:Key-3 L=strong/date,
15:u:Brk-1 R=other,
22:u:Num-2 R=volume/other,
15:u:Brk-1 X=other,
15:u:Brk-1 L=other,
14:u:Fst-2 X=Lu/X,
11:u:Pre-1 X=X,
16:u:tok-1 R=nature,
15:u:tok-1RR=2012.,
15:u:tok-1 R=2012.,
12:u:Pre-2 R=Ki,
12:u:Pre-2 X=Ki,
12:u:Suf-2 X=p,,
12:u:Suf-2 X=be,
12:u:Suf-2 L=be,
17:u:Tok-1 X=Physics,
17:u:tok-1 X=physics,
17:u:tok-1 L=physics,
17:u:tok-1LL=physics,
15:u:tok-1 L=yang,,
15:u:tok-1LL=yang,,
12:u:Suf-2 X=ew,
16:u:tok-1 L=review,
12:u:Suf-2 L=ew,
20:u:Key-1 R=translator,
25:u:Tmn-2 R=none/translator,
16:u:Tok-1 X=Trans.,
15:u:tok-1 X=trans,
20:u:Key-1 X=translator,
28:u:Key-2 X=translator/initial,
27:u:Key-3 x=translator/strong,
20:u:Key-1 L=translator,
25:u:Tmn-2 L=translator/none,
16:u:tok-1LL=trans.,
14:u:tok-1 X=curr,
15:u:tok-1 L=1996.,
15:u:tok-1LL=1996.,
12:u:Suf-2 X=um,
12:u:Suf-2 L=um,
12:u:Tok-1 X=1.,
11:u:tok-1 X=1,
12:u:Pre-2 X=1.,
12:u:Pre-2 R=Ox,
23:u:Num-2 R=year/moderate,
12:u:Pre-2 X=Ox,
20:u:tok-2 L=yang,/nano,
21:u:tok-2 R=lett./2010,,
13:u:tok-1RR=new,
13:u:tok-1 R=new,
13:u:Tok-1 X=New,
13:u:tok-1 X=new,
13:u:tok-1 L=new,
15:u:tok-1RR=earth,
15:u:tok-1 R=earth,
12:u:Pre-2 X=PU,
23:u:Tok-1 X=Prentice-Hall,
22:u:tok-1 X=prenticehall,
19:u:tok-1LL=nonlinear,
20:u:tok-1 L=equations.,
16:u:tok-1 R=series,
34:u:tok-2 L=equations./prentice-hall,
30:u:tok-2 R=prentice-hall/series,
16:u:Key-1 R=series,
21:u:Tmn-2 R=none/series,
16:u:Tok-1 X=Series,
16:u:tok-1 X=series,
20:u:tok-1LL=equations.,
23:u:tok-1 L=prentice-hall,
23:u:tok-1RR=computational,
30:u:tok-2 L=prentice-hall/series,
19:u:tok-2 R=series/in,
16:u:Key-1 X=series,
24:u:Key-2 X=series/initial,
21:u:Key-3 L=none/series,
21:u:Key-3 x=series/none,
23:u:tok-1LL=prentice-hall,
16:u:tok-1 L=series,
23:u:tok-1 R=computational,
22:u:tok-1RR=mathematics.,
19:u:tok-2 L=series/in,
26:u:tok-2 R=in/computational,
16:u:Key-1 L=series,
21:u:Tmn-2 L=series/none,
23:u:Tok-1 X=Computational,
23:u:tok-1 X=computational,
16:u:tok-1LL=series,
22:u:tok-1 R=mathematics.,
24:u:tok-1RR=prentice-hall,,
26:u:tok-2 L=in/computational,
36:u:tok-2 R=computational/mathematics.,
22:u:Tok-1 X=Mathematics.,
21:u:tok-1 X=mathematics,
23:u:tok-1 L=computational,
24:u:tok-1 R=prentice-hall,,
14:u:tok-1RR=inc,,
36:u:tok-2 L=computational/mathematics.,
37:u:tok-2 R=mathematics./prentice-hall,,
24:u:Tok-1 X=Prentice-Hall,,
23:u:tok-1LL=computational,
22:u:tok-1 L=mathematics.,
14:u:tok-1 R=inc,,
19:u:tok-1RR=englewood,
37:u:tok-2 L=mathematics./prentice-hall,,
29:u:tok-2 R=prentice-hall,/inc,,
22:u:Key-3 x=edition/weak,
20:u:Tok-1 X=Cambridge,,
19:u:tok-1 X=cambridge,
15:u:tok-1RR=york:,
17:u:Key-1 L=edition,
22:u:Tmn-2 L=edition/weak,
15:u:Tok-1 X=York:,
14:u:tok-1 X=york,
17:u:tok-1RR=special,
17:u:tok-1 R=special,
17:u:Tok-1 X=Special,
17:u:tok-1 X=special,
17:u:tok-1 L=special,
17:u:tok-1LL=special,
12:u:Pre-2 X=PM,
18:u:tok-1RR=learning,
18:u:tok-1 R=learning,
18:u:Tok-1 X=Learning,
18:u:tok-1 X=learning,
18:u:tok-1 L=learning,
18:u:tok-1LL=learning,
12:u:tok-1 X=ca,
11:u:tok-1LL=p,
18:u:tok-1 X=analysis,
16:u:Tok-1 X=United,
16:u:tok-1 X=united,
16:u:tok-1LL=press,,
18:u:tok-1 R=kingdom.,
25:u:tok-2 R=united/kingdom.,
18:u:Tok-1 X=Kingdom.,
17:u:tok-1 X=kingdom,
16:u:tok-1 L=united,
25:u:tok-2 L=united/kingdom.,
23:u:tok-2 R=kingdom./_x+1,
20:u:tok-1RR=artificial,
22:u:tok-1 X=intelligence,
20:u:tok-1 L=artificial,
23:u:tok-1 L=intelligence,,
13:u:tok-1RR=mit,
13:u:tok-1 R=mit,
12:u:Pre-2 R=MI,
18:u:tok-1RR=systems,,
17:u:tok-1 X=systems,
18:u:tok-1 L=systems,,
17:u:tok-1RR=chicago,
18:u:tok-1LL=systems,,
14:u:Tok-1 X=ISBN,
14:u:tok-1 X=isbn,
13:u:tok-1 L=32,,
24:u:tok-1 R=0-226-42976-8.,
18:u:tok-2 L=32,/isbn,
29:u:tok-2 R=isbn/0-226-42976-8.,
12:u:Suf-2 X=BN,
24:u:Tok-1 X=0-226-42976-8.,
20:u:tok-1 X=0226429768,
13:u:tok-1LL=32,,
14:u:tok-1 L=isbn,
29:u:tok-2 L=isbn/0-226-42976-8.,
29:u:tok-2 R=0-226-42976-8./_x+1,
13:u:Fst-2 X=N/0,
11:u:Pre-1 X=0,
12:u:Pre-2 X=0-,
12:u:Suf-2 L=BN,
16:u:tok-1 X=theory,
21:u:tok-1RR=(cambridge:,
19:u:tok-1RR=cambridge,
21:u:Tok-1 X=(Cambridge:,
19:u:tok-1 R=cambridge,
12:u:Pre-2 X=(C,
21:u:tok-1 L=(cambridge:,
21:u:tok-1LL=(cambridge:,
14:u:Lst-2 X=Lu/S,
11:u:Suf-1 X=S,
16:u:Tmn-3 X=none/S,
14:u:Lst-2 L=Lu/S,
14:u:tok-1 X=1981,
15:u:Tok-1 X=Ph.D.,
13:u:tok-1 X=phd,
16:u:Key-1 R=thesis,
23:u:Tmn-2 R=strong/thesis,
22:u:tok-1 X=dissertation,
15:u:tok-1 L=ph.d.,
16:u:Key-1 X=thesis,
22:u:Key-2 X=thesis/lower,
23:u:Key-3 L=strong/thesis,
23:u:Key-3 x=thesis/strong,
18:u:Tok-1 X=Stanford,
18:u:tok-1 X=stanford,
16:u:Key-1 L=thesis,
21:u:Tmn-2 L=thesis/none,
18:u:tok-1 L=stanford,
15:u:tok-1LL=fluid,
12:u:Suf-2 L='s,
20:u:tok-1 X=technology,
12:u:Pre-2 X=n.,
12:u:Pre-2 R=23,
17:u:tok-1 R=harvard,
17:u:Tok-1 X=Harvard,
17:u:tok-1 X=harvard,
17:u:tok-1 L=harvard,
17:u:tok-1LL=harvard,
16:u:Key-1 L=pubmed,
16:u:Tok-1 X=Wiley.,
15:u:tok-1 X=wiley,
12:u:Pre-2 X=tw,
14:u:tok-2 R=of/a,
14:u:tok-2 L=of/a,
13:*:Num-1 X=all,
18:u:Num-2 R=all/none,
12:u:Pre-2 R=78,
12:u:Pre-2 X=78,
12:u:Pre-2 R=15,
12:u:Pre-2 X=15,
22:u:Tmn-2 L=and/moderate,
17:u:Tok-1 X=Bakola,,
16:u:tok-1 X=bakola,
22:u:tok-2 L=_x-1/bakola,,
21:u:tok-2 R=bakola,/e.,,
17:u:tok-1 L=bakola,,
20:u:tok-1RR=prauscello,
21:u:tok-2 L=bakola,/e.,,
16:u:tok-2 R=e.,/l.,
12:u:Suf-2 L=lo,
15:u:Tok-1 X=State,
12:u:Tok-1 X=To,
12:u:Suf-2 X=To,
12:u:Suf-2 L=To,
12:u:tok-1 X=15,
12:u:Pre-2 R=AC,
12:u:Pre-2 X=AC,
12:u:Suf-2 X=CM,
15:u:Tok-1 X=Math.,
14:u:tok-1 X=math,
27:u:Tmn-2 L=translator/strong,
19:u:tok-1 L=learning.,
19:u:tok-1LL=learning.,
12:u:Pre-2 X=Ef,
13:u:tok-1RR=may,
13:u:Tok-1 X=May,
13:u:tok-1 X=may,
27:u:Tmn-2 R=strong/translator,
27:u:Key-3 L=strong/translator,
15:u:tok-1 R=pages,
22:u:tok-1 R=transactions,
27:u:tok-2 R=ieee/transactions,
22:u:Tok-1 X=Transactions,
22:u:tok-1 X=transactions,
27:u:tok-2 L=ieee/transactions,
22:u:tok-1 L=transactions,
24:u:tok-1 X=communications,
12:u:Pre-2 R=ap,
16:u:tok-1 X=appear,
12:u:Pre-2 X=ap,
19:u:Tok-1 X=Technical,
19:u:tok-1 X=technical,
19:u:tok-1 L=technical,
19:u:tok-1LL=september,
15:u:tok-1LL=pages,
14:u:tok-1RR=man,,
21:u:tok-2 R=on/systems,,
14:u:Tok-1 X=Man,,
13:u:tok-1 X=man,
23:u:tok-2 L=systems,/man,,
18:u:tok-2 R=man,/and,
14:u:tok-1 L=man,,
22:u:tok-1 R=cybernetics,,
18:u:tok-2 L=man,/and,
26:u:tok-2 R=and/cybernetics,,
12:u:Pre-2 R=Cy,
22:u:Tok-1 X=Cybernetics,,
21:u:tok-1 X=cybernetics,
14:u:tok-1LL=man,,
15:u:tok-1RR=issue,
26:u:tok-2 L=and/cybernetics,,
30:u:tok-2 R=cybernetics,/special,
12:u:Pre-2 X=Cy,
15:u:tok-1 R=issue,
23:u:tok-2 R=special/issue,
15:u:Tok-1 X=Issue,
15:u:tok-1 X=issue,
23:u:tok-2 L=special/issue,
18:u:tok-2 R=issue/on,
15:u:tok-1 L=issue,
18:u:tok-2 L=issue/on,
15:u:tok-1LL=issue,
22:u:tok-1RR=mathematical,
22:u:tok-1 R=mathematical,
22:u:Tok-1 X=Mathematical,
22:u:tok-1 X=mathematical,
20:u:tok-1 X=statistics,
22:u:tok-1 L=mathematical,
22:u:tok-1LL=mathematical,
11:*:Fst-1 X=S,
12:u:Pre-2 R=3,,
12:u:Pre-2 X=Ol,
18:u:tok-1RR=planning,
18:u:tok-1 R=planning,
18:u:Tok-1 X=Planning,
18:u:tok-1 X=planning,
18:u:tok-1 L=planning,
12:u:Pre-2 R=Ob,
12:u:Pre-2 X=Ob,
23:u:Tok-1 X=International,
22:u:tok-1 R=programming,,
14:u:Tok-1 X=Page,
14:u:tok-1 X=page,
12:u:tok-1 R=15,
20:u:tok-2 L=1996./page,
17:u:tok-2 R=page/15,
12:u:Tok-1 X=15,
14:u:tok-1 L=page,
17:u:tok-2 L=page/15,
17:u:tok-2 R=15/_x+1,
12:u:Suf-2 X=15,
21:u:tok-1LL=recognition,
15:u:tok-1 L=1995.,
14:u:tok-1RR=note,
14:u:tok-1 R=note,
14:u:Tok-1 X=Note,
14:u:tok-1 X=note,
14:u:tok-1 L=note,
16:u:tok-1RR=report,
16:u:tok-1 R=report,
16:u:Key-1 R=report,
21:u:Tmn-2 R=none/report,
16:u:tok-1 X=report,
16:u:Key-1 X=report,
22:u:Key-2 X=report/lower,
21:u:Key-3 L=none/report,
21:u:Key-3 x=report/none,
13:u:tok-1 X=two,
12:u:Suf-2 X=wo,
13:u:tok-1 L=two,
12:u:Suf-2 L=wo,
12:u:Pre-2 R=(O,
14:u:Tok-1 X=Jan.,
15:u:Tok-1 X=Data.,
20:u:tok-1RR=statistics,
20:u:tok-1 R=statistics,
20:u:Tok-1 X=Statistics,
20:u:tok-1 L=statistics,
20:u:tok-1LL=statistics,
18:u:tok-1 L=problem,,
16:u:Tok-1 X=Report,
24:u:Key-2 X=report/initial,
12:u:Pre-2 R=1.,
22:u:tok-1 R=cybernetics:,
26:u:tok-2 R=and/cybernetics:,
22:u:Tok-1 X=Cybernetics:,
26:u:tok-2 L=and/cybernetics:,
30:u:tok-2 R=cybernetics:/special,
22:u:tok-1 L=cybernetics:,
30:u:tok-2 L=cybernetics:/special,
22:u:tok-1LL=cybernetics:,
21:u:tok-1RR=scheduling,,
21:u:tok-1 R=scheduling,,
19:u:tok-1RR=planning,,
24:u:tok-2 R=on/scheduling,,
21:u:tok-1LL=scheduling,,
19:u:tok-1 L=planning,,
16:u:tok-1RR=23(6),,
23:u:tok-2 L=planning,/and,
19:u:tok-1LL=planning,,
16:u:tok-1 R=23(6),,
25:u:tok-2 R=control,/23(6),,
26:u:Key-3 x=proceedings/weak,
19:u:tok-1 X=institute,
18:u:tok-1LL=stanford,
15:u:Tok-1 X=March,
15:u:tok-1 X=march,
12:u:tok-1 R=23,
12:u:tok-1LL=23,
25:u:tok-1LL=complementarity,
12:u:tok-1RR=60,
24:u:tok-2 L=problem,/math.,
28:u:tok-2 R=math./programming,,
16:u:tok-1LL=common,
12:u:tok-1RR=3.,
12:u:Suf-2 X=ok,
12:u:Suf-2 L=ok,
19:u:tok-1 L=planning.,
19:u:tok-1LL=planning.,
15:u:tok-1RR=1973,,
15:u:tok-1 L=1973,,
15:u:tok-1LL=1973,,
11:u:tok-1 L=7,
11:u:Suf-2 L=7,
11:u:tok-1LL=7,
20:u:Tok-1 X=Submitted.,
19:u:tok-1 X=submitted,
26:u:tok-2 L=1995./submitted.,
25:u:tok-2 R=submitted./_x+1,
12:u:Pre-2 R=97,
12:u:Pre-2 X=97,
14:u:tok-1LL=lazy,
16:u:tok-1 R=appear,
22:u:tok-2 L=learning./to,
19:u:tok-2 R=to/appear,
16:u:Tok-1 X=appear,
19:u:tok-2 L=to/appear,
19:u:tok-2 R=appear/in,
16:u:tok-1 L=appear,
19:u:tok-2 L=appear/in,
16:u:tok-1LL=appear,
21:u:tok-2 R=the/special,
15:u:Pos-2 R=10/10,
15:u:Pos-2 L=10/10,
18:u:Tok-1 X=research,
13:u:Tok-1 X=NP.,
12:u:tok-1 X=np,
19:u:tok-1LL=gestalt!,,
18:u:tok-2 R=np./_x+1,
19:u:Cap-2 R=caps/_x+1,
14:u:Suf-2 X=’.,
12:u:Pre-2 R="W,
26:u:Key-2 X=accessed/initial,
12:u:Pre-2 R=(M,
12:u:Pre-2 X=(M,
16:u:tok-1 X=volume,
16:u:tok-1 L=volume,
16:u:tok-1LL=volume,
18:u:tok-1 L=england.,
14:u:tok-1LL=york,
16:u:tok-1LL=times,,
13:u:Tok-1 X=1A,,
12:u:tok-1 X=1a,
15:u:tok-1LL=1985,,
14:u:tok-1 L=sec.,
18:u:tok-2 L=sec./1a,,
16:u:tok-2 R=1a,/p.,
12:u:Pre-2 X=1A,
22:u:Num-2 R=ordinal/weak,
16:u:Tok-1 X=Bonnie,
16:u:tok-1 X=bonnie,
16:u:tok-1LL=quoted,
19:u:tok-1 R=costello,,
18:u:tok-1RR=marianne,
19:u:tok-2 L=in/bonnie,
26:u:tok-2 R=bonnie/costello,,
19:u:Tok-1 X=Costello,,
18:u:tok-1 X=costello,
16:u:tok-1 L=bonnie,
18:u:tok-1 R=marianne,
16:u:tok-1RR=moore:,
26:u:tok-2 L=bonnie/costello,,
28:u:tok-2 R=costello,/marianne,
18:u:Tok-1 X=Marianne,
18:u:tok-1 X=marianne,
16:u:tok-1LL=bonnie,
19:u:tok-1 L=costello,,
16:u:tok-1 R=moore:,
19:u:tok-1RR=imaginary,
28:u:tok-2 L=costello,/marianne,
25:u:tok-2 R=marianne/moore:,
16:u:Tok-1 X=Moore:,
15:u:tok-1 X=moore,
19:u:tok-1LL=costello,,
18:u:tok-1 L=marianne,
19:u:tok-1 R=imaginary,
21:u:tok-1RR=possessions,
25:u:tok-2 L=marianne/moore:,
26:u:tok-2 R=moore:/imaginary,
19:u:Tok-1 X=Imaginary,
19:u:tok-1 X=imaginary,
18:u:tok-1LL=marianne,
16:u:tok-1 L=moore:,
21:u:tok-1 R=possessions,
26:u:tok-2 L=moore:/imaginary,
31:u:tok-2 R=imaginary/possessions,
19:u:tok-1LL=imaginary,
21:u:tok-1 L=possessions,
33:u:tok-2 L=possessions/(cambridge:,
29:u:tok-2 R=(cambridge:/harvard,
21:u:tok-1LL=possessions,
29:u:tok-2 L=(cambridge:/harvard,
28:u:tok-2 R=harvard/university,
16:u:tok-1RR=1981),,
28:u:tok-2 L=harvard/university,
16:u:tok-1 R=1981),,
13:u:tok-1RR=78.,
23:u:tok-2 R=press,/1981),,
16:u:Tok-1 X=1981),,
13:u:tok-1 R=78.,
23:u:tok-2 L=press,/1981),,
20:u:tok-2 R=1981),/78.,
13:u:Tok-1 X=78.,
12:u:tok-1 X=78,
16:u:tok-1 L=1981),,
20:u:tok-2 L=1981),/78.,
18:u:tok-2 R=78./_x+1,
15:u:tok-1LL=short,
15:u:Tok-1 X=2006.,
22:u:tok-2 R=the/politics,
22:u:tok-2 L=the/politics,
21:u:tok-2 R=politics/of,
16:u:tok-1RR=oxford,
16:u:tok-1 X=oxford,
17:u:Tok-1 X=Oxford,,
19:u:tok-1 R=presented,
19:u:Tok-1 X=presented,
19:u:tok-1 X=presented,
22:u:tok-2 R=presented/at,
19:u:tok-1 L=presented,
22:u:tok-2 L=presented/at,
19:u:tok-1LL=presented,
12:u:Pre-2 R=Ai,
12:u:Pre-2 R=Ol,
20:u:Tok-1 X=———.,
16:u:Fst-2 X=Pd/—,
13:u:Pre-1 X=—,
16:u:Pre-2 X=——,
14:u:Suf-2 X=—.,
20:u:tok-1 L=———.,
14:u:Suf-2 L=—.,
17:u:tok-1 X=culture,
16:u:tok-1RR=edited,
16:u:tok-1 R=edited,
16:u:tok-1 X=edited,
19:u:tok-2 R=edited/by,
21:u:Key-3 x=editor/none,
16:u:tok-1 L=edited,
19:u:tok-2 L=edited/by,
16:u:tok-1LL=edited,
20:u:tok-1 X=population,
17:u:Tok-1 X=Current,
17:u:tok-1 X=current,
17:u:tok-1 L=current,
17:u:tok-1LL=current,
16:u:Tok-1 X=Poster,
16:u:tok-1 X=poster,
18:u:tok-1 L=report.",
25:u:tok-2 L=report."/poster,
26:u:tok-2 R=poster/presented,
16:u:tok-1RR=annual,
16:u:tok-1 R=annual,
16:u:Tok-1 X=Annual,
16:u:tok-1 X=annual,
17:u:tok-1 X=meeting,
16:u:tok-1 L=annual,
18:u:tok-1 X=galaxies,
26:u:Tok-1 X=Springer-Verlag,,
24:u:tok-1 X=springerverlag,
19:u:tok-1 L=galaxies.,
36:u:tok-2 L=galaxies./springer-verlag,,
34:u:tok-2 R=springer-verlag,/berlin,,
17:u:tok-1 R=report,,
27:u:tok-2 R=technical/report,,
17:u:Tok-1 X=report,,
27:u:tok-2 L=technical/report,,
21:u:Key-3 x=report/weak,
13:u:tok-1 X=usa,
12:u:Pre-2 X=US,
21:u:tok-1RR=conference,,
12:u:Pre-2 X=CA,
12:u:Suf-2 X=US,
12:u:Suf-2 L=US,
18:u:tok-1 X=workshop,
18:u:tok-1 L=business,
18:u:tok-1LL=business,
15:u:tok-1 R=york,,
19:u:tok-2 R=new/york,,
15:u:Tok-1 X=York,,
19:u:tok-2 L=new/york,,
15:u:tok-1LL=2000.,
25:u:tok-2 L=_x-1/———.,
18:u:Tok-1 X=Society,,
18:u:tok-1 L=society,,
16:u:tok-1 L=sense,,
19:u:tok-1 R=(toronto:,
25:u:tok-2 L=sense,/politics,
28:u:tok-2 R=politics/(toronto:,
12:u:Pre-2 R=(T,
16:u:tok-1 L=(ed.),,
16:u:tok-1LL=(ed.),,
20:u:tok-1 X=psychology,
15:u:Tok-1 X=Ahead,
15:u:tok-1 X=ahead,
17:u:tok-1LL=urology,
16:u:tok-1 L=focus,,
16:u:tok-1RR=print,,
22:u:tok-2 L=focus,/ahead,
18:u:tok-2 R=ahead/of,
12:u:Pre-2 X=Ah,
16:u:tok-1LL=focus,,
15:u:tok-1 L=ahead,
16:u:tok-1 R=print,,
17:u:tok-1RR=art.nr.,
18:u:tok-2 L=ahead/of,
19:u:tok-2 R=of/print,,
16:u:Tok-1 X=print,,
15:u:tok-1 X=print,
15:u:tok-1LL=ahead,
17:u:tok-1 R=art.nr.,
32:u:tok-1RR=s2405-4569(17)30002-0.,
19:u:tok-2 L=of/print,,
24:u:tok-2 R=print,/art.nr.,
17:u:Tok-1 X=art.nr.,
15:u:tok-1 X=artnr,
16:u:tok-1 L=print,,
32:u:tok-1 R=s2405-4569(17)30002-0.,
24:u:tok-2 L=print,/art.nr.,
40:u:tok-2 R=art.nr./s2405-4569(17)30002-0.,
12:u:Pre-2 R=S2,
12:u:Suf-2 L=74,
16:u:Tok-1 X=Wiley,,
20:u:tok-1 L=mechanics,,
27:u:tok-2 L=mechanics,/wiley,,
20:u:tok-2 R=wiley,/new,
20:u:tok-1 R=population,
20:u:Tok-1 X=population,
20:u:tok-1 L=population,
19:u:tok-1RR=institute,
19:u:tok-1 R=institute,
19:u:Tok-1 X=Institute,
19:u:tok-1 L=institute,
19:u:tok-1LL=institute,
26:u:Key-2 X=translator/lower,
25:u:Key-3 x=translator/none,
15:u:tok-1 L=2016.,
15:u:tok-1LL=2016.,
18:u:tok-1 R=america:,
18:u:Tok-1 X=America:,
18:u:tok-1 L=america:,
18:u:tok-1LL=america:,
18:u:tok-1 L=culture,,
18:u:tok-1LL=culture,,
19:u:Tok-1 X=Governing,
19:u:tok-1 X=governing,
15:u:tok-1LL=singh,
26:u:tok-2 L=(ed.),/governing,
28:u:tok-2 R=governing/america:,
19:u:tok-1 L=governing,
28:u:tok-2 L=governing/america:,
22:u:tok-2 R=america:/the,
19:u:tok-1LL=governing,
22:u:tok-2 L=america:/the,
17:u:tok-1RR=divided,
17:u:tok-1 R=divided,
19:u:tok-2 R=a/divided,
17:u:Tok-1 X=Divided,
17:u:tok-1 X=divided,
18:u:tok-1RR=(oxford:,
19:u:tok-2 L=a/divided,
27:u:tok-2 R=divided/democracy,
17:u:tok-1 L=divided,
18:u:tok-1 R=(oxford:,
27:u:tok-2 L=divided/democracy,
28:u:tok-2 R=democracy/(oxford:,
15:u:tok-1 X=money,
12:u:Tok-1 X=US,
12:u:tok-1 L=us,
22:u:Tok-1 X=Encyclopedia,
22:u:tok-1 X=encyclopedia,
21:u:tok-1LL=“yates’,
21:u:tok-1 L=correction.,
34:u:tok-2 L=correction./encyclopedia,
25:u:tok-2 R=encyclopedia/of,
21:u:tok-1LL=correction.,
22:u:tok-1 L=encyclopedia,
25:u:tok-2 L=encyclopedia/of,
23:u:tok-2 R=of/statistics,
22:u:tok-1LL=encyclopedia,
20:u:tok-1RR=behavioral,
23:u:tok-2 L=of/statistics,
23:u:tok-2 R=statistics/in,
20:u:tok-1 R=behavioral,
22:u:tok-1RR=science.”.,
23:u:tok-2 L=statistics/in,
23:u:tok-2 R=in/behavioral,
20:u:Tok-1 X=Behavioral,
20:u:tok-1 X=behavioral,
22:u:tok-1 R=science.”.,
23:u:tok-2 L=in/behavioral,
33:u:tok-2 R=behavioral/science.”.,
22:u:Tok-1 X=Science.”.,
20:u:tok-1 L=behavioral,
33:u:tok-2 L=behavioral/science.”.,
27:u:tok-2 R=science.”./_x+1,
14:u:Suf-2 X=”.,
19:u:Tok-1 X=July(11).,
16:u:tok-1 X=july11,
15:u:tok-1 L=times,
14:u:tok-1 R=url:,
100:u:tok-1RR=http://www.nytimes.com/2004/07/11/business/economic-view-beyond-a-president-s-control.html,
25:u:tok-2 L=times/july(11).,
24:u:tok-2 R=july(11)./url:,
12:u:Pre-2 R=UR,
19:u:Tok-1 X=Giannini,,
18:u:tok-1 X=giannini,
14:u:tok-1 L=a.p.,
18:u:tok-1 R=marriner,
18:u:tok-1RR=stoddard,
24:u:tok-2 L=a.p./giannini,,
28:u:tok-2 R=giannini,/marriner,
13:u:Tok-1 X=PhD,
12:u:Suf-2 X=hD,
21:u:Tmn-2 R=none/thesis,
16:u:tok-1 X=thesis,
13:u:tok-1 L=phd,
12:u:Suf-2 L=hD,
21:u:Key-3 L=none/thesis,
20:u:tok-1LL=helicopter,
12:u:Suf-2 X=SA,
12:u:Suf-2 L=SA,
18:u:tok-1LL=society,,
23:u:tok-1 R=dissertation,,
21:u:Key-3 x=thesis/weak,
15:u:Tok-1 X=IEEE,,
21:u:tok-1 R=university,,
30:u:tok-2 R=stanford/university,,
21:u:Tok-1 X=University,,
30:u:tok-2 L=stanford/university,,
21:u:tok-1 L=automation,,
14:u:tok-1 R=icra,
16:u:tok-1RR=’09.,
27:u:tok-2 L=automation,/2009.,
20:u:tok-2 R=2009./icra,
12:u:Pre-2 R=IC,
12:u:Pre-2 X=IC,
19:u:tok-1 L=noise,”,
14:u:Num-1 R=isbn,
14:*:Num-1 X=isbn,
13:*:Num-1 L=all,
12:u:tok-1RR=1:,
12:u:tok-1 R=1:,
12:u:Pre-2 R=1:,
21:u:tok-1LL=personality,
20:u:tok-1 X=predicting,
14:u:Tok-1 X=(1).,
19:u:tok-2 R=(1)./_x+1,
12:u:tok-1RR=22,
12:u:tok-1 R=22,
19:u:Tok-1 X=bulletin.,
30:u:tok-2 L=psychology/bulletin.,
24:u:tok-2 R=bulletin./_x+1,
18:u:tok-1 L=literary,
16:u:Tok-1 X=Edited,
17:u:Tok-1 X=Canada.,
22:u:Tok-1 X=(Unpublished,
21:u:tok-1 X=unpublished,
18:u:tok-1 R=doctoral,
24:u:tok-1RR=dissertation).,
31:u:tok-2 R=(unpublished/doctoral,
18:u:Tok-1 X=doctoral,
18:u:tok-1 X=doctoral,
22:u:tok-1 L=(unpublished,
24:u:tok-1 R=dissertation).,
31:u:tok-2 L=(unpublished/doctoral,
33:u:tok-2 R=doctoral/dissertation).,
24:u:Tok-1 X=dissertation).,
22:u:tok-1LL=(unpublished,
18:u:tok-1 L=doctoral,
33:u:tok-2 L=doctoral/dissertation).,
17:u:tok-1 X=reports,
15:u:tok-1RR=probe,
15:u:tok-1 R=probe,
15:u:Tok-1 X=Probe,
15:u:tok-1 X=probe,
15:u:tok-1 L=probe,
21:u:Tok-1 X=Pre-dicting,
17:u:tok-1LL=taskar,,
18:u:tok-1 L=editors,,
20:u:tok-1 R=structured,
30:u:tok-2 L=editors,/pre-dicting,
32:u:tok-2 R=pre-dicting/structured,
20:u:Tok-1 X=Structured,
20:u:tok-1 X=structured,
18:u:tok-1LL=editors,,
21:u:tok-1 L=pre-dicting,
32:u:tok-2 L=pre-dicting/structured,
26:u:tok-2 R=structured/data.,
21:u:tok-1LL=pre-dicting,
20:u:tok-1 L=structured,
26:u:tok-2 L=structured/data.,
19:u:tok-2 R=data./mit,
12:u:Pre-2 R=CV,
12:u:Pre-2 X=CV,
15:u:tok-1 R=week,,
15:u:tok-1RR="what,
23:u:tok-2 L=_x-1/business,
24:u:tok-2 R=business/week,,
15:u:Tok-1 X=Week,,
14:u:tok-1 X=week,
15:u:tok-1 R="what,
15:u:tok-1RR=makes,
24:u:tok-2 L=business/week,,
21:u:tok-2 R=week,/"what,
21:u:tok-1 R=california:,
12:*:Fst-1 X=Pc,
14:u:Fst-2 X=Pc/_,
11:u:Pre-1 X=_,
12:u:Pre-2 X=__,
28:u:tok-2 L=planning./stanford,
27:u:tok-2 R=stanford/research,
20:u:tok-1RR=long-range,
27:u:tok-2 L=stanford/research,
28:u:tok-2 R=research/institute,
20:u:tok-1 R=long-range,
28:u:tok-2 L=research/institute,
30:u:tok-2 R=institute/long-range,
20:u:Tok-1 X=Long-Range,
19:u:tok-1 X=longrange,
30:u:tok-2 L=institute/long-range,
29:u:tok-2 R=long-range/planning,
20:u:tok-1 L=long-range,
29:u:tok-2 L=long-range/planning,
25:u:tok-2 R=planning/report,
20:u:tok-1LL=long-range,
25:u:tok-2 L=planning/report,
20:u:tok-2 R=report/no.,
15:u:tok-1RR=parts,
21:u:tok-2 L=england./in,
16:u:tok-2 R=in/two,
16:u:tok-1 R=walter,
25:u:Key-2 X=edition/initial,
12:u:tok-1 X=nd,
16:u:tok-1 R=london,
16:u:Tok-1 X=London,
16:u:tok-1 L=london,
16:u:tok-1LL=london,
15:u:tok-1 R=clem,,
20:u:tok-1RR=greenberg,,
18:u:tok-2 R=in/clem,,
15:u:Tok-1 X=Clem,,
14:u:tok-1 X=clem,
20:u:tok-1 R=greenberg,,
18:u:tok-2 L=in/clem,,
26:u:tok-2 R=clem,/greenberg,,
20:u:Tok-1 X=Greenberg,,
19:u:tok-1 X=greenberg,
15:u:tok-1 L=clem,,
18:u:tok-1RR=olander,,
26:u:tok-2 L=clem,/greenberg,,
24:u:tok-2 R=greenberg,/and,
18:u:Tok-1 X=Olander,,
17:u:tok-1 X=olander,
20:u:tok-1LL=greenberg,,
22:u:tok-2 L=and/olander,,
17:u:tok-1 X=ballard,
17:u:tok-1LL=stories,
18:u:tok-1RR=ballard.,
15:u:tok-2 L=of/j.,
18:u:tok-1 R=ballard.,
21:u:tok-2 R=g./ballard.,
18:u:Tok-1 X=Ballard.,
21:u:tok-2 L=g./ballard.,
22:u:tok-2 R=ballard./new,
20:u:Tok-1 X=Translated,
20:u:tok-1 X=translated,
23:u:tok-2 R=translated/by,
20:u:tok-1 L=translated,
23:u:tok-2 L=translated/by,
20:u:tok-1LL=translated,
20:u:Tok-1 X=Geburtstag,
20:u:tok-1 X=geburtstag,
13:u:tok-1LL=zum,
13:u:tok-1 L=60.,
18:u:tok-1 R=(munich:,
24:u:tok-2 L=60./geburtstag,
29:u:tok-2 R=geburtstag/(munich:,
20:u:tok-1LL=hyperbolic,
13:u:tok-1 L=374,
16:u:tok-2 L=374/of,
19:u:tok-2 R=of/london,
13:u:tok-1LL=374,
19:u:tok-2 L=of/london,
29:u:tok-2 R=london/mathematical,
17:u:tok-1RR=lecture,
29:u:tok-2 L=london/mathematical,
30:u:tok-2 R=mathematical/society,
17:u:tok-1 R=lecture,
30:u:tok-2 L=mathematical/society,
25:u:tok-2 R=society/lecture,
17:u:Tok-1 X=Lecture,
17:u:tok-1 X=lecture,
17:u:tok-1RR=series.,
25:u:tok-2 L=society/lecture,
22:u:tok-2 R=lecture/note,
17:u:tok-1 L=lecture,
17:u:tok-1 R=series.,
22:u:tok-2 L=lecture/note,
22:u:tok-2 R=note/series.,
17:u:Tok-1 X=Series.,
17:u:tok-1LL=lecture,
22:u:tok-2 L=note/series.,
27:u:tok-2 R=series./cambridge,
23:u:Key-3 x=series/strong,
27:u:tok-2 L=press,/cambridge,,
26:u:tok-2 R=cambridge,/2010.,
17:u:tok-1 L=spaces.,
17:u:tok-1LL=spaces.,
19:u:Tok-1 X=Preprint,,
18:u:tok-1 X=preprint,
14:u:tok-1LL=hole,
19:u:tok-1 L=exterior.,
29:u:tok-2 L=exterior./preprint,,
25:u:tok-2 R=preprint,/2013.,
24:u:Key-3 L=strong/edition,
19:u:tok-1 L=preprint,,
26:u:tok-1 R=arxiv:1206.5454,,
27:u:tok-2 L=spaces./preprint,,
36:u:tok-2 R=preprint,/arxiv:1206.5454,,
15:u:Key-1 R=arxiv,
20:u:Tmn-2 R=weak/arxiv,
26:u:Tok-1 X=arXiv:1206.5454,,
23:u:tok-1 X=arxiv12065454,
36:u:tok-2 L=preprint,/arxiv:1206.5454,,
32:u:tok-2 R=arxiv:1206.5454,/2012.,
15:u:Key-1 X=arxiv,
21:u:Key-2 X=arxiv/other,
20:u:Key-3 L=weak/arxiv,
20:u:Key-3 x=arxiv/weak,
18:u:Tok-1 X=elegans.,
17:u:tok-1 X=elegans,
14:u:tok-1RR=401,,
21:u:tok-2 L=c./elegans.,
25:u:tok-2 R=elegans./nature,
18:u:tok-1LL=ablative,
17:u:tok-1 L=tps,”,
31:u:tok-2 L=tps,”/international,
33:u:tok-2 R=international/planetary,
17:u:tok-1LL=tps,”,
19:u:tok-1RR=workshop,,
33:u:tok-2 L=international/planetary,
25:u:tok-2 R=planetary/probe,
19:u:tok-1 R=workshop,,
25:u:tok-2 L=planetary/probe,
25:u:tok-2 R=probe/workshop,,
19:u:Tok-1 X=Workshop,,
25:u:tok-2 L=probe/workshop,,
24:u:tok-2 R=workshop,/june,
16:u:tok-1RR=2002).,
15:u:tok-1 R=obras,
15:u:Tok-1 X=Obras,
15:u:tok-1 X=obras,
15:u:tok-1 L=obras,
14:u:tok-1 R=obra,
19:u:tok-1RR=completa,,
17:u:tok-2 R=in/obra,
14:u:Tok-1 X=Obra,
14:u:tok-1 X=obra,
19:u:tok-1 R=completa,,
17:u:tok-2 L=in/obra,
24:u:tok-2 R=obra/completa,,
19:u:Tok-1 X=Completa,,
18:u:tok-1 X=completa,
14:u:tok-1 L=obra,
24:u:tok-2 L=obra/completa,,
22:u:tok-2 R=completa,/1:,
25:u:Key-3 L=weak/translator,
24:u:tok-2 L=noise,”/jan.,
17:u:tok-2 R=jan./23,
16:u:tok-1 R=patent,
20:u:tok-1RR=3,712,959.,
18:u:tok-2 L=1973,/us,
19:u:tok-2 R=us/patent,
16:u:Key-1 R=patent,
21:u:Tmn-2 R=none/patent,
16:u:Tok-1 X=Patent,
16:u:tok-1 X=patent,
20:u:tok-1 R=3,712,959.,
19:u:tok-2 L=us/patent,
27:u:tok-2 R=patent/3,712,959.,
16:u:Key-1 X=patent,
24:u:Key-2 X=patent/initial,
21:u:Key-3 L=none/patent,
21:u:Key-3 x=patent/none,
16:u:tok-1 L=patent,
16:u:Key-1 L=patent,
13:u:Tok-1 X=USA,
19:u:tok-1LL=employing,
16:u:tok-1 L=same".,
18:u:tok-1RR=8181907,,
20:u:tok-2 L=same"./usa,
20:u:tok-2 R=usa/patent,
16:u:tok-1LL=same".,
13:u:tok-1 L=usa,
18:u:tok-1 R=8181907,,
20:u:tok-2 L=usa/patent,
25:u:tok-2 R=patent/8181907,,
18:u:Tok-1 X=8181907,,
17:u:tok-1 X=8181907,
13:u:tok-1LL=usa,
25:u:tok-2 L=patent/8181907,,
21:u:tok-2 R=8181907,/22,
21:u:Tmn-2 L=patent/weak,
17:u:tok-1 X=societe,
24:u:tok-1 R=archéologique,
24:u:Tok-1 X=archéologique,
23:u:tok-1 X=archeologique,
24:u:tok-1 L=archéologique,
24:u:tok-1LL=archéologique,
30:u:tok-2 R=canada./meteoritics,,
13:u:tok-1 X=puf,
13:u:Pre-2 X=Té,
22:u:tok-1 X=menstruation,
23:u:tok-1RR=menstruation,,
27:u:tok-2 L=culture,/society,,
22:u:tok-2 R=society,/and,
23:u:tok-1 R=menstruation,,
22:u:tok-2 L=society,/and,
27:u:tok-2 R=and/menstruation,,
23:u:Tok-1 X=Menstruation,,
27:u:tok-2 L=and/menstruation,,
30:u:tok-2 R=menstruation,/edited,
19:u:tok-1RR=(trans.).,
12:u:Pre-2 R=(W,
17:u:Tok-1 X=Hanson,,
16:u:tok-1 X=hanson,
18:u:tok-1LL=infinite,
23:u:tok-1 L=conversation.,
31:u:tok-2 L=conversation./hanson,,
20:u:tok-2 R=hanson,/s.,
18:u:Tok-1 X=Témoins,
17:u:tok-1 X=temoins,
15:u:tok-1LL=xviie,
18:u:tok-1 L=siècle.,
23:u:tok-1RR=témoignages,,
27:u:tok-2 L=siècle./témoins,
21:u:tok-2 R=témoins/et,
18:u:tok-1LL=siècle.,
18:u:tok-1 L=témoins,
23:u:tok-1 R=témoignages,,
21:u:tok-2 L=témoins/et,
26:u:tok-2 R=et/témoignages,,
13:u:Pre-2 R=té,
23:u:Tok-1 X=témoignages,,
21:u:tok-1 X=temoignages,
18:u:tok-1LL=témoins,
21:u:tok-1RR=maisonneuve,
26:u:tok-2 L=et/témoignages,,
30:u:tok-2 R=témoignages,/paris,,
13:u:Pre-2 X=té,
24:u:tok-1 L=semiconductor),
22:u:tok-1RR=technology".,
32:u:tok-2 L=semiconductor)/physics,
21:u:tok-2 R=physics/and,
12:u:Suf-2 L=r),
24:u:tok-1LL=semiconductor),
22:u:tok-1 R=technology".,
30:u:tok-1RR=(wiley-interscience,,
21:u:tok-2 L=physics/and,
26:u:tok-2 R=and/technology".,
22:u:Tok-1 X=Technology".,
30:u:tok-1 R=(wiley-interscience,,
26:u:tok-2 L=and/technology".,
43:u:tok-2 R=technology"./(wiley-interscience,,
14:u:Tok-1 X=n.d.,
19:u:tok-2 R=n.d./_x+1,
17:u:tok-1 R=oeuvres,
21:u:tok-1RR=complètes.,
14:u:tok-2 L=7/of,
20:u:tok-2 R=of/oeuvres,
12:u:Pre-2 R=Oe,
17:u:Tok-1 X=Oeuvres,
17:u:tok-1 X=oeuvres,
21:u:tok-1 R=complètes.,
17:u:tok-1RR=geneva:,
20:u:tok-2 L=of/oeuvres,
29:u:tok-2 R=oeuvres/complètes.,
12:u:Pre-2 X=Oe,
21:u:Tok-1 X=complètes.,
19:u:tok-1 X=completes,
17:u:tok-1 L=oeuvres,
17:u:tok-1 R=geneva:,
19:u:tok-1RR=slatkine,,
29:u:tok-2 L=oeuvres/complètes.,
29:u:tok-2 R=complètes./geneva:,
16:u:Tok-1 X=Buenos,
16:u:tok-1 X=buenos,
16:u:tok-1 R=aires:,
23:u:tok-2 R=buenos/aires:,
16:u:Tok-1 X=Aires:,
15:u:tok-1 X=aires,
16:u:tok-1 L=buenos,
23:u:tok-2 L=buenos/aires:,
16:u:Tok-1 X=Werke.,
15:u:tok-1 X=werke,
19:u:tok-1LL=brentano,,
18:u:tok-1 L=clemens.,
25:u:tok-2 L=clemens./werke.,
23:u:tok-2 R=werke./edited,
19:u:tok-1 L=frühwald,
20:u:tok-1RR=darmstadt:,
22:u:tok-2 L=frühwald/et,
19:u:tok-1LL=frühwald,
20:u:tok-1 R=darmstadt:,
27:u:tok-1RR=wissenschaftliche,
24:u:tok-2 R=al./darmstadt:,
17:u:Tok-1 X=______.,
22:u:tok-2 L=_x-1/______.,
12:u:Suf-2 X=_.,
17:u:tok-1LL=______.,
19:u:Tok-1 X=Ellipses,,
18:u:tok-1 X=ellipses,
13:u:tok-1LL=nos,
16:u:tok-1 L=jours,,
26:u:tok-2 L=jours,/ellipses,,
26:u:tok-2 R=ellipses,/paris,,
19:u:tok-1LL=work-life,
19:u:tok-1 L=earnings.,
18:u:tok-1RR=reports.,
27:u:tok-2 L=earnings./current,
28:u:tok-2 R=current/population,
19:u:tok-1LL=earnings.,
18:u:tok-1 R=reports.,
28:u:tok-2 L=current/population,
29:u:tok-2 R=population/reports.,
18:u:Tok-1 X=reports.,
29:u:tok-2 L=population/reports.,
30:u:tok-2 R=reports./washington,,
42:u:Tok-1 X=-educational-improvement-details,
39:u:tok-1 X=educationalimprovementdetails,
57:u:tok-1 L=http://www.spencer.org/content.cfm/data-use-and,
90:u:tok-2 L=http://www.spencer.org/content.cfm/data-use-and/-educational-improvement-details,
47:u:tok-2 R=-educational-improvement-details/_x+1,
12:u:Pre-2 X=-e,
16:u:tok-1 L=dover.,
24:u:tok-1 R=0-486-67260-3.,
21:u:tok-2 L=dover./isbn,
29:u:tok-2 R=isbn/0-486-67260-3.,
24:u:Tok-1 X=0-486-67260-3.,
20:u:tok-1 X=0486672603,
16:u:tok-1LL=dover.,
29:u:tok-2 L=isbn/0-486-67260-3.,
29:u:tok-2 R=0-486-67260-3./_x+1,
27:u:tok-1 R=978-0-19-995864-1,
20:u:tok-2 L=2016./isbn,
32:u:tok-2 R=isbn/978-0-19-995864-1,
27:u:Tok-1 X=978-0-19-995864-1,
23:u:tok-1 X=9780199958641,
32:u:tok-2 L=isbn/978-0-19-995864-1,
32:u:tok-2 R=978-0-19-995864-1/_x+1,
24:u:Tok-1 X=0-471-35349-3.,
20:u:tok-1 X=0471353493,
16:u:tok-1LL=wiley.,
29:u:tok-2 L=isbn/0-471-35349-3.,
29:u:tok-2 R=0-471-35349-3./_x+1,
1=9.523570e-02
2=4.200311e-02
3=-3.487775e-02
4=3.629846e-03
5=2.461495e-02
6=-3.415278e-02
7=4.925968e-02
9=1.119545e-03
10=3.737797e-02
11=1.457291e-03
12=6.453813e-02
13=1.645271e-01
14=-2.404222e-03
15=1.085055e-01
16=-2.717367e-01
17=-1.016379e-01
18=4.745490e-02
20=5.642297e-01
21=-2.885553e-02
39=9.785720e-01
40=3.056581e-01
41=3.141168e-01
42=1.874623e-01
43=-2.423726e-01
44=-1.696946e-01
45=-6.372862e-01
46=-9.281733e-01
47=-5.628439e-01
48=-2.654516e-01
50=-1.244734e-01
52=-1.257006e-01
53=-3.637186e-02
54=-2.549037e-02
56=-5.243575e-02
57=-4.720153e-02
58=-1.054627e+00
59=5.633596e-01
60=5.680130e-02
61=-3.433498e-01
62=-5.918342e-01
63=-1.143265e+00
64=-7.134912e-02
65=-2.195705e-02
66=1.162618e-02
67=-8.014830e-03
69=-5.156462e-01
71=-2.664202e-03
72=7.148626e-04
73=-2.103091e-01
74=-5.456682e-03
77=-4.655836e-01
78=-8.275203e-01
79=6.232108e-01
80=2.073646e-01
81=5.482638e-01
83=-9.338884e-01
84=-6.716752e-01
85=-1.187896e+00
86=-1.071095e+00
87=-2.468069e-01
90=-6.824770e-01
92=-1.478014e-01
94=-6.589468e-01
96=-5.960737e-01
97=1.960972e-01
99=2.769720e-01
100=1.553083e-01
101=7.116167e-02
102=-4.016514e-01
104=-4.970821e-01
105=-1.838135e-01
115=-2.350943e-01
116=-1.621598e+00
117=-5.489146e-01
118=-1.142420e-02
119=9.631170e-01
120=6.171729e-01
123=1.606945e-01
124=-4.255831e-02
126=-8.529710e-01
135=-8.813843e-01
136=-8.352580e-02
137=5.072512e-02
139=4.534574e-01
142=-3.020596e-02
146=5.058281e-02
153=-6.770720e-01
154=-1.914264e+00
155=-9.127571e-01
156=-2.455825e-02
157=1.235660e-03
158=4.719085e-02
159=1.185433e+00
160=2.616414e-04
161=1.785056e-02
162=-6.578148e-02
164=-6.754226e-01
166=-1.778921e-01
168=-9.298055e-03
170=-4.014912e-01
172=-4.394552e-01
173=-5.692114e-01
174=-4.168480e-01
175=-6.725655e-02
177=9.715765e-03
178=1.732860e-01
179=1.343088e+00
180=6.792005e-04
181=-4.394464e-01
183=-1.716099e-01
185=-8.557857e-03
189=-1.104110e-02
191=-2.754839e-01
192=-9.201519e-01
193=-2.382395e-01
194=1.926932e-02
199=1.118312e+00
200=2.572608e-01
202=-2.407986e-02
210=-3.568036e-01
211=-5.415004e-01
212=-4.758102e-01
213=8.852064e-02
214=-4.997233e-01
215=-2.643713e-02
218=9.806803e-02
219=7.228321e-01
220=4.121029e-02
221=-4.045495e-01
230=-2.332345e-01
239=3.983698e-01
240=6.854138e-02
248=-3.953094e-01
249=-1.079485e+00
250=-1.073983e+00
251=-6.464129e-01
252=-8.292371e-02
253=-6.682329e-01
256=-2.289596e-01
257=-8.796324e-02
258=3.043111e-01
259=1.145662e+00
277=-2.999309e-05
279=4.392063e-01
286=-1.281916e-01
287=-7.533551e-01
288=-2.787393e-01
289=-6.336172e-02
293=-3.193982e-02
294=8.136238e-02
299=8.758166e-01
305=-1.098012e-02
309=-1.879318e-03
319=1.773808e+00
324=-1.423300e-02
325=-2.882164e-01
326=-6.182524e-02
327=-1.846946e-02
328=-4.195276e-03
332=-4.355287e-02
333=4.847296e-02
339=8.262445e-01
344=-2.503686e-02
359=1.058307e+00
362=-2.302425e-02
363=-1.011728e+00
364=-3.252044e-01
366=-2.872009e-03
368=-9.118243e-03
371=1.328559e-01
373=-1.821581e-03
379=1.087220e+00
380=2.122591e-01
381=1.021349e-01
382=-2.193441e-02
384=-4.076959e-02
386=-1.125899e-02
388=5.593465e-02
389=-2.973402e-02
390=-3.934740e-02
396=-1.032868e-03
399=2.122591e-01
400=1.021349e-01
401=-2.193441e-02
403=-4.076959e-02
405=-1.125899e-02
407=5.593465e-02
408=-2.973402e-02
409=-3.934740e-02
415=-1.032868e-03
418=1.615988e-01
419=-3.262400e+00
420=-5.439578e-02
421=-2.519141e+00
422=2.020607e-01
423=1.049869e-01
424=1.957748e-01
425=3.497679e-03
426=-3.088856e-03
427=-8.337606e-01
428=-2.075616e-01
430=-3.849790e-03
431=3.755713e-04
432=-1.027380e-01
433=8.254623e-05
458=-7.295142e-01
460=1.283854e-01
477=3.040608e-01
479=-7.523325e-03
480=-1.641508e-01
490=5.476740e-03
497=-2.070368e-01
498=2.798046e-02
499=6.276512e-01
500=-3.636920e-01
517=2.696666e-01
518=1.012487e-01
536=-1.896773e-02
537=4.862547e-02
538=1.932171e+00
555=3.064834e-02
557=1.999103e+00
574=-3.007063e-02
575=-2.000986e-03
576=-2.504797e-03
577=8.320739e-01
593=-3.120573e-02
595=5.309134e-02
612=3.525423e-02
631=1.063292e-01
669=-9.045247e-02
670=1.932070e-04
677=6.760411e-01
697=8.966257e-01
726=6.718322e-04
777=9.637155e-01
784=-6.024243e-02
797=3.280864e-01
798=9.014404e-02
799=9.096262e-02
800=1.525238e-01
801=-1.539287e-03
802=-2.114903e-03
803=-6.135412e-01
804=-7.114133e-02
805=-2.612514e-03
806=1.392649e-02
807=1.492740e-01
808=2.285706e-02
809=-1.059259e-01
810=-2.941710e-03
812=1.061348e-02
814=1.214955e-01
815=-1.581434e-01
816=5.093731e-02
822=3.380449e-01
823=1.315488e-02
835=2.799447e-04
838=3.421816e-03
839=-9.887610e-03
843=3.049102e-02
855=2.122591e-01
856=1.021349e-01
857=-2.193441e-02
859=-4.076959e-02
861=-1.125899e-02
863=5.593465e-02
864=-2.973402e-02
865=-3.934740e-02
871=-1.032868e-03
1237=3.734004e-02
1239=1.531761e-02
1240=1.872830e-01
1241=6.819468e-01
1254=2.122591e-01
1255=1.021349e-01
1256=-2.193441e-02
1258=-4.076959e-02
1260=-1.125899e-02
1262=5.593465e-02
1263=-2.973402e-02
1264=-3.934740e-02
1270=-1.032868e-03
1278=3.380449e-01
1279=1.315488e-02
1291=2.799447e-04
1295=-8.630205e-03
1299=3.263152e-04
1311=2.122591e-01
1312=1.021349e-01
1313=-2.193441e-02
1315=-4.076959e-02
1317=-1.125899e-02
1319=5.593465e-02
1320=-2.973402e-02
1321=-3.934740e-02
1327=-1.032868e-03
1330=2.122591e-01
1331=1.021349e-01
1332=-2.193441e-02
1334=-4.076959e-02
1336=-1.125899e-02
1338=5.593465e-02
1339=-2.973402e-02
1340=-3.934740e-02
1346=-1.032868e-03
1349=1.651929e-01
1350=-3.157115e-01
1351=-3.843253e-02
1353=1.767004e-01
1354=1.898683e-01
1355=1.246421e-01
1356=-3.334746e-02
1357=-2.440035e-01
1358=-1.269096e-01
1359=-3.724346e-01
1360=1.597357e-02
1361=-1.202557e-04
1362=5.997349e-02
1363=-2.441553e-01
1364=7.131351e-03
1367=-3.052093e-02
1368=4.449844e-02
1369=4.853020e-02
1370=7.519993e-02
1371=-1.746070e-02
1373=-1.873315e-01
1374=-5.057908e-02
1375=3.183320e-02
1376=-3.305650e-04
1377=-1.182066e-01
1378=3.956417e-02
1379=-5.704894e-02
1380=-9.507564e-03
1382=9.512940e-02
1383=3.403430e-04
1384=2.380946e-01
1386=4.998644e-02
1387=3.026255e-01
1388=7.754598e-03
1389=-5.452167e-02
1391=-3.452619e-03
1393=-7.295685e-03
1395=-8.620709e-03
1406=1.933935e-01
1407=-3.564309e-02
1410=2.030980e-01
1412=3.572074e-02
1413=3.555880e-03
1417=-3.393633e-03
1418=-1.877557e-01
1425=3.026255e-01
1426=7.754598e-03
1427=-5.452167e-02
1429=-3.452619e-03
1431=-7.295685e-03
1433=-8.620709e-03
1444=2.122591e-01
1445=1.021349e-01
1446=-2.193441e-02
1448=-4.076959e-02
1450=-1.125899e-02
1452=5.593465e-02
1453=-2.973402e-02
1454=-3.934740e-02
1460=-1.032868e-03
1829=1.128510e-01
1905=6.073760e-01
1963=1.924932e-02
2189=4.937211e-03
2204=2.602752e-02
2205=1.326156e-01
2206=2.144094e-01
2207=5.198779e-03
2208=2.426239e-03
2210=-1.171929e-01
2211=4.234449e-02
2212=-1.158518e-02
2213=-7.455041e-02
2214=4.340991e-03
2216=2.621682e-03
2217=-1.019964e-01
2218=7.009104e-02
2219=1.431547e-02
2220=-1.724402e-02
2221=-6.800028e-01
2222=9.707076e-02
2223=1.373754e-01
2224=-5.501671e-03
2228=2.443607e-01
2229=1.743383e-03
2235=-1.732682e-01
2243=-2.055986e-01
2244=1.039876e-01
2245=1.450132e-01
2246=-1.598373e-01
2247=1.401221e-01
2248=-1.083558e-02
2249=1.120954e-01
2250=-1.659932e-01
2251=-3.895920e-01
2252=-3.306607e-03
2254=6.291754e-02
2255=-6.378020e-03
2256=-1.618903e-02
2257=8.160553e-02
2258=-2.232804e-06
2259=-7.707794e-02
2260=4.344502e-02
2262=8.953989e-02
2263=1.214577e-02
2264=5.534311e-02
2265=1.337151e-02
2266=7.817819e-02
2267=-7.399273e-03
2268=3.212883e-02
2269=-1.148586e-02
2270=-8.748501e-01
2271=2.567861e-03
2272=1.444819e-03
2273=8.629905e-02
2274=1.535164e-01
2275=3.504589e-03
2276=1.007906e-01
2277=-1.822395e-01
2278=-9.349030e-02
2279=4.006953e-02
2281=1.006729e-01
2282=1.427963e-01
2283=-2.953466e-02
2284=5.709694e-02
2285=1.351409e-01
2287=4.364766e-02
2288=-8.857315e-03
2289=-2.016163e-02
2290=-4.778454e-01
2292=7.285363e-02
2293=1.371678e-01
2294=2.225240e-03
2296=-1.438271e-01
2297=-8.435543e-02
2298=-3.529925e-03
2300=1.347148e-01
2301=-1.697738e-02
2302=-1.951154e-01
2303=6.451264e-02
2304=1.579734e-01
2305=9.477279e-02
2306=1.304507e-02
2307=6.525252e-01
2308=-3.370791e-01
2309=4.588937e-02
2310=3.416578e-02
2311=7.923443e-02
2312=1.700520e-01
2313=1.678176e-01
2315=-1.713751e-01
2317=-1.927988e-01
2318=2.122591e-01
2319=1.021349e-01
2320=-2.193441e-02
2322=-4.076959e-02
2324=-1.125899e-02
2326=5.593465e-02
2327=-2.973402e-02
2328=-3.934740e-02
2334=-1.032868e-03
2338=7.482365e-02
2339=2.061992e-01
2340=3.692052e-02
2341=5.951863e-04
2342=-3.089266e-01
2343=-6.094582e-02
2344=2.016846e-02
2345=-9.714819e-02
2346=1.615798e-03
2347=3.528357e-02
2348=1.879661e-01
2349=2.704641e-02
2350=-1.134077e-01
2351=-2.699994e-02
2352=-5.898237e-01
2353=-2.703991e-01
2354=-8.721392e-02
2355=-1.118733e-01
2356=8.941643e-04
2357=1.533538e-01
2358=6.579970e-02
2359=-2.381763e-03
2360=-2.999062e-03
2361=-4.918291e-02
2362=-8.834011e-03
2363=2.714774e-03
2364=8.398946e-03
2365=-1.279722e-01
2366=3.285849e-02
2367=-1.691630e-01
2368=7.125837e-03
2369=-1.915026e-04
2370=2.368688e-02
2371=-5.125891e-02
2372=-2.411056e-01
2373=-8.769871e-02
2374=-1.069327e-01
2375=1.671053e-01
2376=-2.617122e-01
2377=1.306680e-02
2379=4.747100e-01
2380=1.915020e-01
2381=1.389567e-01
2382=-2.550787e-02
2383=-1.220983e+00
2384=-1.217512e-01
2385=-7.769200e-01
2386=4.607563e-02
2387=-5.071525e-03
2389=-2.369502e-01
2391=-2.908035e-04
2393=-3.047979e-02
2394=2.125095e-01
2395=1.003399e-01
2396=-2.177588e-02
2398=-4.030723e-02
2400=-1.119452e-02
2402=7.218524e-02
2403=-2.952433e-02
2404=-3.908061e-02
2410=-9.476158e-04
2414=-3.353476e-02
2415=1.323857e-01
2416=8.445904e-02
2417=1.018170e-01
2418=-3.140885e-02
2419=2.946952e-05
2420=3.110406e-02
2421=-4.998940e-02
2422=-1.296738e-02
2423=5.003944e-02
2424=1.786120e-01
2425=6.239934e-02
2427=1.614759e-02
2429=1.460736e-04
2430=8.541404e-02
2431=8.901757e-02
2432=2.122591e-01
2433=1.021349e-01
2434=-2.193441e-02
2436=-4.076959e-02
2438=-1.125899e-02
2440=5.593465e-02
2441=-2.973402e-02
2442=-3.934740e-02
2448=-1.032868e-03
2451=2.122591e-01
2452=1.021349e-01
2453=-2.193441e-02
2455=-4.076959e-02
2457=-1.125899e-02
2459=5.593465e-02
2460=-2.973402e-02
2461=-3.934740e-02
2467=-1.032868e-03
2470=4.059676e-01
2471=2.178666e-02
2478=5.351090e-03
2489=2.122591e-01
2490=1.021349e-01
2491=-2.193441e-02
2493=-4.076959e-02
2495=-1.125899e-02
2497=5.593465e-02
2498=-2.973402e-02
2499=-3.934740e-02
2505=-1.032868e-03
2509=-9.749681e-03
2510=-4.461279e-02
2511=1.645699e-01
2512=7.551488e-02
2513=3.476737e-02
2514=3.332454e-05
2515=5.346794e-03
2516=8.167085e-02
2517=-4.297857e-02
2518=-7.369626e-03
2519=-1.255351e+00
2520=9.283261e-02
2522=9.023724e-02
2523=-1.403771e-01
2524=-2.317693e-05
2526=8.545620e-02
2527=2.006307e-01
2528=-1.446121e-01
2529=9.351941e-03
2530=9.817984e-02
2532=6.394510e-02
2533=-5.143222e-01
2534=-9.296659e-03
2535=3.036105e-03
2536=-2.674642e-01
2537=3.023558e-02
2538=2.793520e-02
2539=-5.153528e-05
2540=-5.783861e-02
2543=-2.056310e-01
2545=5.522652e-02
2546=2.122591e-01
2547=1.021349e-01
2548=-2.193441e-02
2550=-4.076959e-02
2552=-1.125899e-02
2554=5.593465e-02
2555=-2.973402e-02
2556=-3.934740e-02
2562=-1.032868e-03
2566=1.583151e-01
2567=5.385953e-02
2568=4.524867e-02
2569=2.061504e-02
2570=-9.722195e-02
2571=1.020782e-01
2572=5.437975e-02
2574=1.333551e-03
2575=2.479463e-02
2576=1.371046e-03
2577=-6.201857e-02
2578=-6.891935e-03
2579=-1.727262e-02
2580=-1.618331e-01
2581=-9.733693e-02
2582=-9.058935e-02
2583=6.024398e-02
2585=1.273594e-01
2586=3.377483e-02
2587=-2.177797e-02
2589=4.520176e-02
2590=-1.134049e-03
2591=9.071548e-03
2593=4.106146e-02
2594=-3.219655e-03
2595=-3.728833e-01
2597=-9.738605e-02
2598=-2.935199e-03
2599=9.834826e-02
2600=-1.111471e-02
2601=-9.473476e-02
2602=5.702091e-02
2603=2.122591e-01
2604=1.021349e-01
2605=-2.193441e-02
2607=-4.076959e-02
2609=-1.125899e-02
2611=5.593465e-02
2612=-2.973402e-02
2613=-3.934740e-02
2619=-1.032868e-03
2984=-3.885764e-02
2985=-1.465734e-02
2986=1.239960e-01
2987=1.703236e-02
2988=5.331752e-04
2989=4.765297e-05
2990=-8.683670e-04
2991=-8.090375e-02
2992=-3.290520e-02
2993=-3.070942e-03
2994=1.160904e-01
2995=9.063831e-02
2997=7.823116e-03
2999=1.463140e-01
3001=1.029363e-01
3002=2.006708e-01
3003=-8.153224e-02
3004=-4.905198e-02
3005=1.461387e-01
3006=-1.174324e-03
3007=1.145581e-02
3008=9.617232e-03
3009=-3.625137e-02
3010=4.919467e-03
3011=-6.733937e-02
3012=4.808206e-02
3013=-2.998749e-03
3014=-2.883663e-02
3015=-3.812602e-02
3016=-1.735675e-02
3018=-1.707793e-02
3020=5.902005e-02
3021=2.467694e-02
3022=4.233279e-03
3041=-7.346543e-03
3042=3.704568e-02
3043=6.864124e-02
3044=4.309860e-02
3045=7.433385e-03
3046=-1.415701e-02
3047=4.479581e-02
3048=-4.519868e-02
3049=-1.436635e-02
3050=3.949142e-02
3051=-1.589953e-01
3052=8.240970e-02
3054=1.076074e-02
3055=-7.919621e-01
3058=-2.315339e-02
3060=-7.632983e-02
3061=3.463659e-02
3062=1.051025e-01
3064=-4.068512e-02
3065=-1.029825e+00
3066=3.633123e-02
3067=-2.145437e-02
3068=-8.665385e-03
3069=7.847720e-02
3071=3.140563e-02
3073=3.190175e-02
3075=2.680319e-01
3076=-6.925265e-03
3077=3.725862e-02
3079=1.463874e-01
3080=4.189331e-02
3081=4.082905e-02
3082=9.308529e-02
3083=3.677448e-02
3084=7.429122e-02
3085=-3.089876e-02
3087=-4.514630e-02
3088=3.980025e-02
3089=-2.023988e+00
3090=7.091169e-02
3091=-2.639858e+00
3092=-2.320705e-03
3093=1.058835e-01
3094=-9.590239e-02
3095=-1.400803e-01
3096=4.703655e-02
3098=3.236957e-01
3099=-4.487552e-02
3101=-7.616849e-02
3105=6.533018e-02
3107=-2.795419e-02
3116=-1.618550e+00
3117=1.325135e-01
3118=-1.475297e-02
3119=1.982332e-01
3120=-2.275930e-01
3121=-1.802375e-01
3123=3.477100e-02
3124=3.477998e-02
3125=8.169624e-02
3126=1.128685e-01
3127=-1.017006e+00
3128=3.090961e-02
3129=-6.133926e-02
3130=-4.973221e-03
3131=-2.440204e-01
3132=-4.891463e-02
3133=-2.660960e-02
3134=1.952442e-02
3136=5.905097e-01
3155=9.696533e-01
3156=1.298938e-01
3157=3.861315e-03
3158=-8.439122e-01
3160=-3.945794e-02
3162=-3.651858e-01
3163=-3.599552e-01
3164=-1.383327e-01
3170=-3.978120e-03
3175=2.391000e-01
3176=2.847174e-01
3180=-1.130457e-02
3181=-1.651602e-02
3182=-9.913715e-04
3183=-8.042808e-03
3185=-4.502121e-02
3187=-9.773277e-03
3188=1.127036e-02
3189=-7.092380e-02
3190=-1.226183e-02
3191=5.707047e-02
3193=-2.982255e-01
3194=-2.757073e-01
3195=6.003194e-01
3196=-5.032047e-01
3197=1.090625e-02
3201=-6.390975e-01
3202=-1.630129e-01
3208=-1.612693e-02
3212=-4.238065e-01
3213=2.110067e-01
3214=1.132882e-02
3215=2.593187e-01
3216=-1.702439e-01
3218=-2.543159e-01
3219=-2.039309e-03
3220=-3.002493e-01
3234=-2.477179e-01
3236=7.553864e-04
3239=2.621458e-01
3240=-1.385200e-02
3253=1.030725e-02
3258=4.593135e-02
3259=5.747962e-03
3269=-1.854407e-01
3271=-3.368105e-01
3273=1.309850e-04
3275=7.062260e-01
3276=-4.510982e-03
3277=5.084936e-03
3278=-4.728895e-02
3284=-3.237874e-03
3288=-2.436900e-01
3289=-5.322063e-02
3290=-2.705053e-01
3294=4.303682e-01
3295=1.032782e+00
3296=2.835860e-03
3297=-2.863741e-01
3307=-1.279895e-01
3309=-1.253329e-01
3315=5.919681e-01
3316=5.245071e-01
3318=-2.991051e-02
3326=-9.688799e-02
3328=-3.972369e-02
3329=-5.996294e-01
3334=2.069808e-01
3335=6.125931e-01
3372=-1.400183e-01
3373=-3.611363e-02
3375=3.112565e-01
3403=-1.192599e-01
3404=-1.606814e-01
3410=4.365098e-02
3415=8.523775e-01
3421=-3.622089e-03
3440=-5.438535e-03
3441=-6.482149e-02
3442=-3.017013e-02
3448=-2.108676e-02
3449=4.137712e-02
3455=5.961533e-01
3478=-9.109752e-03
3480=-2.023751e-02
3482=5.550030e-03
3487=2.437350e-01
3495=2.517042e-01
3497=2.690893e-02
3498=-1.902465e-02
3499=2.445255e-01
3500=-2.774259e-01
3504=6.748944e-02
3505=9.741260e-03
3506=-8.665753e-03
3516=4.313458e-03
3517=4.948341e-05
3522=1.376513e-03
3536=-5.654684e-03
3537=-2.823278e-01
3538=8.257481e-02
3539=1.093507e-01
3541=2.521635e-03
3554=2.513839e-02
3593=2.961589e-02
3633=9.051695e-02
3653=5.380861e-01
3654=1.189419e-02
3655=5.589391e-03
3671=-3.120329e-02
3672=1.153776e-01
3673=1.824197e-03
3679=-4.109013e-04
3914=-4.175293e-01
3915=5.892057e-02
3916=-8.069921e-03
3917=3.226070e-02
3918=7.273710e-02
3919=1.374347e-01
3920=-2.235643e-01
3921=-7.228279e-02
3922=-3.717685e-04
3923=6.312792e-02
3924=1.424942e-02
3926=-1.187695e-02
3928=-3.234007e-03
3929=5.367143e-02
3930=-2.446514e-01
3931=-7.941027e-02
3932=-8.937419e-02
3934=1.113268e-02
3935=-1.037477e-02
3936=-2.523581e-03
3937=-2.557639e-02
3938=-1.459850e-02
3939=-3.097713e-02
3940=8.023648e-03
3941=8.698639e-03
3942=2.999294e-02
3943=3.394984e-02
3945=-6.773921e-04
3946=-9.130168e-02
3947=-1.246687e-02
3948=-8.140139e-04
3949=-8.059372e-02
3950=-3.768584e-02
3953=2.690893e-02
3954=-1.902465e-02
3955=2.445255e-01
3956=-2.774259e-01
3960=6.748944e-02
3961=9.741260e-03
3962=-8.665753e-03
3974=-1.712494e-03
3978=1.755959e-05
3980=2.198214e-01
3991=1.113268e-02
3992=-1.037477e-02
3993=-2.523581e-03
3994=-2.557639e-02
3995=-1.459850e-02
3996=-3.097713e-02
3997=8.023648e-03
3998=8.698639e-03
3999=2.999294e-02
4000=3.394984e-02
4002=-6.773921e-04
4003=-9.130168e-02
4004=-1.246687e-02
4005=-8.140139e-04
4006=-8.059372e-02
4007=-3.768584e-02
4010=-2.317238e-01
4017=1.197580e-02
4018=1.648090e-01
4019=-5.259943e-02
4028=-5.824707e-02
4029=-2.432243e-01
4030=4.136456e-02
4031=-2.122274e-01
4032=2.226292e-02
4033=2.658216e-02
4034=8.967680e-01
4036=-4.350408e-01
4037=-4.566423e-02
4038=-5.100274e-02
4040=3.173812e-02
4041=4.071994e-02
4042=-3.997713e-01
4043=9.626836e-03
4044=-1.119380e-02
4046=-5.744717e-01
4048=3.286951e-03
4049=9.802065e-02
4050=1.189089e-01
4051=-1.123181e-02
4052=-4.383215e-02
4053=-5.168351e-01
4054=1.649982e-02
4055=2.585273e-02
4056=5.834057e-02
4057=1.036745e-01
4058=-5.504608e-01
4059=4.588091e-02
4061=-5.943287e-04
4062=-2.643307e-02
4063=3.243348e-03
4064=-1.872716e-01
4065=-2.183065e-03
4067=9.392265e-02
4068=-4.182752e-02
4069=-2.394953e-02
4073=-3.939990e-02
4074=2.213291e-01
4086=-9.288407e-04
4087=1.244030e-01
4090=1.258357e-04
4092=3.042356e-06
4093=-3.363884e-02
4095=-3.294896e-02
4097=1.196193e-02
4101=-1.398939e-03
4105=8.372041e-02
4106=-2.223021e-02
4107=-6.146813e-03
4111=-1.343745e-01
4112=1.362588e-01
4116=-5.600299e-03
4118=4.809426e-03
4124=2.861573e-02
4125=5.762276e-02
4126=4.051830e-02
4129=-1.038282e-02
4130=2.366578e-02
4131=5.181597e-03
4132=-2.480581e-01
4133=-3.342209e-01
4135=3.777893e-02
4137=3.335711e-02
4139=2.769470e-01
4140=-2.851446e-02
4141=2.564082e-02
4146=-1.938190e-03
4147=4.953724e-03
4261=6.645866e-03
4522=-8.950029e-01
4523=1.617609e-01
4524=1.812445e-01
4525=1.285807e-01
4526=-1.954350e-01
4527=-4.404145e-01
4528=-2.209025e-01
4529=5.462908e-03
4531=-6.359870e-04
4532=9.773258e-02
4534=5.034745e-02
4535=-8.507499e-02
4536=7.749630e-02
4537=8.785983e-02
4538=-1.052538e-01
4539=-7.880380e-02
4540=1.729883e-02
4542=5.409614e-01
4543=-1.703746e-02
4561=1.091441e+00
4562=3.687265e-01
4563=1.772882e-02
4564=-9.833109e-01
4565=-9.712442e-02
4566=-4.017207e-02
4567=-3.139135e-01
4568=-5.469147e-01
4569=-4.273349e-01
4570=-1.852454e-01
4572=-7.817490e-02
4574=-4.382818e-02
4576=-8.883568e-03
4578=-3.568080e-03
4580=-8.318965e-01
4581=5.442481e-01
4582=8.970124e-02
4583=-1.709128e-01
4584=-2.069608e-04
4586=-5.259440e-02
4587=-1.211546e-03
4588=2.713766e-02
4589=-2.203385e-02
4591=-3.408062e-01
4592=-1.149309e-02
4595=-1.925165e-01
4597=2.943164e-03
4599=-3.793519e-01
4600=-5.915242e-02
4601=8.580969e-01
4602=5.537313e-02
4603=-1.640250e-01
4604=1.401195e-03
4605=-2.625221e-01
4606=-3.291507e-01
4607=-8.647450e-01
4608=-8.089987e-01
4612=-2.846918e-01
4614=-8.404016e-02
4616=-3.195575e-01
4618=-2.889678e-01
4619=2.208983e-01
4621=2.346608e-01
4622=-3.125068e-01
4623=2.955933e-01
4624=-3.275760e-01
4626=-4.033469e-01
4627=-7.738688e-03
4629=5.313037e-02
4637=-3.183178e-02
4638=-1.335511e+00
4639=-8.731591e-02
4641=1.106135e+00
4642=2.425846e-01
4645=1.894382e-01
4646=-2.528443e-02
4648=-9.345149e-02
4657=-3.278066e-01
4658=-6.791246e-02
4659=3.141823e-05
4664=4.353302e-02
4667=4.680093e-01
4675=-8.711582e-02
4676=-6.345010e-01
4677=-8.453512e-01
4679=1.893832e-03
4681=1.100818e+00
4682=1.698503e-04
4683=1.862628e-02
4684=-5.545429e-02
4686=-3.115102e-01
4688=-1.028359e-01
4690=-7.121166e-03
4692=-2.096564e-02
4694=-2.527704e-01
4695=-2.926172e-01
4696=-4.704504e-01
4700=1.868322e-01
4701=1.272832e+00
4702=3.271789e-03
4703=-3.678279e-01
4705=-4.042264e-02
4711=-5.729697e-04
4715=-3.594523e-01
4721=5.374117e-01
4722=3.217643e-01
4724=-4.649553e-02
4732=-1.222768e-01
4733=-4.721043e-01
4734=-4.189887e-01
4735=-3.720648e-03
4737=-1.716461e-01
4740=1.825276e-01
4741=7.312922e-01
4752=-2.043382e-01
4761=1.636600e-02
4762=8.781514e-02
4770=-2.119818e-01
4771=-6.931948e-01
4772=-7.472466e-01
4773=-2.488884e-02
4775=-4.888027e-03
4778=-1.881430e-01
4779=-6.550203e-02
4780=4.088229e-02
4781=5.855569e-01
4808=-7.284835e-02
4809=-6.670832e-01
4810=-2.170291e-01
4815=-1.152423e-02
4816=1.249203e-01
4821=1.092068e+00
4827=-6.342177e-03
4831=-7.453768e-04
4841=2.067174e+00
4846=-8.546921e-03
4847=-2.658818e-01
4848=-5.815386e-02
4854=-4.140602e-02
4855=2.971289e-02
4861=9.302172e-01
4866=-1.858747e-02
4884=-1.146114e-02
4885=-4.420331e-01
4886=-2.641901e-01
4888=1.786712e-03
4890=-4.825361e-03
4893=1.267143e-01
4901=8.190628e-01
4903=4.505855e-02
4904=-1.447294e-01
4905=1.534415e-02
4909=7.521373e-04
4910=6.647199e-02
4921=-1.282148e+00
4922=2.060137e-01
4923=7.896491e-02
4924=3.280958e-01
4925=-1.127443e-01
4926=-5.754879e-01
4927=-3.934218e-01
4928=1.297713e-02
4929=-1.554812e-01
4930=3.098378e-03
4931=1.401752e-01
4932=4.961270e-01
4933=1.997649e-01
4934=-1.462769e-01
4935=1.368454e-01
4936=-7.770416e-02
4937=2.330612e-01
4938=-6.531792e-02
4939=1.895959e-01
4941=3.399365e-02
4942=1.359013e-02
4943=5.461514e-02
4944=-1.769049e-01
4945=-4.316353e-01
4946=-5.576520e-01
4947=-1.121843e-03
4948=7.719776e-03
4949=1.886423e-02
4950=7.139256e-02
4952=-3.671784e-02
4954=-2.543143e-02
4955=9.853242e-03
4956=-1.521492e-02
4957=-2.362223e-02
4959=-7.328869e-02
4960=1.354035e-02
4961=1.792891e-01
4962=3.380413e-02
4963=4.914156e-02
4964=-1.372526e-01
4965=8.092541e-03
4966=-3.403797e-03
4967=-2.907320e-02
4969=1.359332e-02
4970=1.536519e-01
4971=1.227909e-02
4972=-4.831388e-02
4973=1.500421e-02
4974=4.993999e-02
4975=-1.708800e-01
4976=-7.800555e-02
4977=4.934331e-02
4979=6.710818e-02
4980=1.703202e-01
4981=8.886041e-02
4982=-1.410534e-01
4983=-1.651373e+00
4984=-3.396833e-01
4985=2.981602e-02
4986=-1.356702e-02
4987=7.533439e-02
4988=1.181419e-01
4989=-1.419548e-01
4990=2.936329e-02
4991=-2.338421e-01
4992=-1.390056e-02
4993=-7.431237e-01
4994=-8.479346e-04
4995=-1.229002e-01
4996=-2.760415e-04
4998=3.673880e-02
4999=2.040585e-01
5000=3.600229e-02
5001=-4.611796e-03
5002=-2.265996e-02
5003=-2.122837e-01
5004=9.258477e-02
5005=-3.481456e-02
5006=-2.214746e-01
5007=4.194777e-02
5008=4.794858e-02
5009=6.181476e-02
5011=3.660209e-03
5012=-3.953055e-02
5013=-9.468605e-03
5015=-2.640744e-02
5017=3.452840e-02
5018=1.214013e-02
5019=1.959863e-02
5020=1.813653e-03
5021=-1.060541e-01
5023=-1.188860e-02
5024=5.379495e-03
5025=3.105895e-02
5026=1.453552e-01
5028=-2.338134e-02
5029=-5.900853e-02
5030=-4.029617e-02
5031=-1.240795e+00
5032=-6.843258e-03
5034=-1.222195e+00
5036=2.808856e-01
5037=-3.417652e-01
5043=7.638519e-03
5055=2.635065e-01
5056=-3.214555e-01
5062=1.341422e-02
5074=1.732248e-02
5075=1.419029e-01
5076=5.893552e-02
5077=-2.671946e-02
5078=4.832066e-03
5079=-4.362688e-02
5080=5.660180e-02
5081=1.081615e-01
5082=-2.384957e-01
5083=-7.005675e-02
5085=2.480961e-02
5087=2.206355e-02
5089=1.200570e-01
5091=2.376029e-02
5092=5.086061e-02
5093=-7.091585e-02
5094=1.648553e-01
5095=-3.085139e-02
5096=3.248613e-02
5098=-1.404831e+00
5099=-5.960447e-03
5100=-3.563925e-04
5101=3.970440e-02
5102=2.570093e-02
5103=-1.789364e-01
5104=5.921946e-02
5105=-5.154639e-02
5106=-4.141972e-02
5107=1.248591e-04
5109=-7.104067e-02
5110=1.880073e-02
5112=1.832116e-01
5113=1.808612e-03
5114=6.136918e-03
5115=2.046544e-03
5116=-5.816665e-01
5117=4.235984e-02
5118=-3.840841e-02
5119=5.317977e-03
5120=7.801191e-02
5121=1.833128e-02
5123=-6.689097e-02
5125=-7.107177e-03
5126=1.838889e-01
5127=-2.283456e-02
5128=-6.338019e-02
5129=-5.055604e-02
5130=-6.416722e-01
5131=-2.344386e-03
5132=4.191841e-02
5133=9.783964e-03
5134=-1.882064e-01
5135=1.607343e-01
5136=-8.394836e-04
5137=-3.194002e-02
5139=-3.486956e-02
5140=2.059231e-02
5142=1.845213e-02
5143=1.474206e-01
5144=-2.180476e-03
5145=-6.825580e-02
5146=-1.747357e-02
5147=-8.589299e-02
5148=1.061973e-01
5150=1.577861e-02
5151=1.821613e-01
5152=3.271367e-02
5153=-5.217869e-03
5154=8.900486e-04
5155=-1.642664e-01
5156=3.676676e-02
5157=-2.943366e-02
5158=-2.801536e-01
5159=-1.118651e-01
5160=2.223605e-02
5161=9.116284e-02
5164=3.754261e-03
5165=1.367162e-01
5167=1.531248e-02
5169=4.638844e-03
5188=8.392866e-01
5189=-3.157120e+00
5190=-4.490551e-02
5191=8.799013e-02
5197=-3.064618e-02
5207=-5.332199e-01
5208=9.394428e-01
5209=-1.343771e+00
5210=-5.460844e-01
5211=-4.597448e-01
5213=-1.568145e+00
5214=-7.904272e-01
5215=-1.719743e-01
5216=-6.781231e-01
5218=-3.066687e-01
5220=-5.705447e-01
5221=-7.127284e-03
5222=-3.469847e-01
5223=-7.099859e-04
5224=-8.452903e-01
5227=-1.080587e+00
5228=7.480369e-01
5230=1.926073e-01
5232=-2.559955e-01
5237=-9.633496e-01
5241=-4.637485e-02
5246=-1.693518e-01
5248=2.795125e+00
5264=-2.599962e-03
5265=-6.771541e-01
5267=4.948506e-02
5268=1.059330e+00
5270=3.054666e-03
5286=-7.049171e-04
5287=4.260265e-02
5288=4.671797e-01
5294=-7.060803e-02
5304=-1.491959e-02
5305=-2.772223e-01
5306=-3.349823e-01
5307=6.744669e-03
5308=1.099119e+00
5309=-2.215079e-01
5310=3.666256e-02
5311=-1.726138e-01
5317=-3.674763e-03
5322=-6.681331e-01
5327=-1.629155e-01
5328=8.378909e-01
5334=-4.497633e-03
5348=2.018051e+00
5349=-1.292092e-01
5359=-3.127283e-02
5368=2.227968e+00
5388=1.071412e-02
5389=1.101672e-01
5398=-3.093843e-01
5400=-1.282375e-01
5407=7.712532e-02
5408=8.008026e-01
5436=-1.790558e-01
5448=7.189325e-01
5468=4.989241e-01
5474=-1.308043e-01
5475=-1.817609e-02
5488=1.065111e+00
5508=7.226490e-01
5512=-2.116798e-01
5528=7.198045e-01
5530=2.922157e-02
5531=1.252962e-05
5532=4.308704e-03
5534=-1.957195e-03
5536=-1.844619e-04
5537=1.011284e-02
5538=1.737152e-02
5539=6.196001e-02
5541=-1.446935e-02
5542=-8.915521e-02
5543=-7.925811e-02
5544=-5.864152e-04
5545=-7.872050e-02
5546=-3.876388e-02
5549=1.437984e-02
5550=1.092648e-02
5551=3.461088e-02
5552=-2.059570e-05
5553=-2.236042e-02
5554=-2.340996e-03
5555=-2.454632e-02
5556=1.842273e-04
5557=1.422969e-02
5558=1.284531e-01
5560=-2.768926e-02
5561=-7.717864e-03
5562=-1.240161e-01
5563=9.354262e-04
5568=1.204155e-01
5569=9.981204e-03
5570=1.793265e-03
5571=-5.473583e-05
5572=-5.795382e-02
5574=-4.710227e-02
5575=5.481017e-04
5576=2.672659e-02
5577=6.943461e-02
5579=-4.001592e-03
5580=-2.165500e-02
5581=-7.734235e-01
5582=2.965228e-03
5585=2.514542e-02
5587=6.257272e-03
5588=-1.279088e-02
5589=2.559091e-02
5590=-9.999433e-05
5591=-5.424397e-02
5593=-8.826551e-05
5594=5.151221e-03
5595=2.993788e-02
5596=3.567440e-02
5598=-1.176892e-02
5599=-8.495091e-02
5600=-5.089322e-02
5601=-1.873418e-04
5602=-2.869645e-02
5606=2.082641e-01
5607=-3.792853e-03
5613=1.937658e-02
5614=-3.261448e-03
5626=1.067422e-04
5627=-1.930929e-02
5629=4.267631e-01
5631=-5.007833e-04
5644=-3.608814e-02
5645=1.561916e-02
5650=-5.256635e-03
5652=-2.987674e-01
5657=3.648259e-02
5663=-2.368893e-01
5664=-4.413736e-02
5665=3.604342e-02
5666=7.267093e-02
5667=1.050762e-01
5668=-5.553179e-02
5669=-1.184808e-01
5670=-8.075382e-04
5671=1.950293e-01
5672=1.325375e-01
5674=6.443530e-02
5675=6.144782e-02
5676=2.062498e-02
5677=4.609015e-02
5678=-2.402175e-01
5679=-4.759804e-02
5680=-2.313233e-02
5682=7.208396e-03
5701=2.471740e-01
5702=6.281593e-01
5703=2.086709e-03
5704=2.882868e-01
5705=-1.479663e-01
5706=-1.245429e-01
5707=-1.949679e-01
5708=-4.503323e-01
5709=-3.889519e-01
5710=-1.422719e-01
5711=-1.281799e-02
5716=-9.196767e-03
5721=-1.284137e-01
5722=6.120400e-01
5723=-2.257003e-01
5724=-2.877093e-02
5725=-7.615141e-02
5726=-1.307590e-02
5727=1.861267e-02
5728=1.157178e-01
5729=9.037328e-02
5733=1.831775e-02
5734=3.621839e-01
5736=-9.036217e-06
5737=8.581227e-03
5741=1.367168e-01
5742=4.959361e-01
5743=3.520653e-01
5744=1.220237e-03
5747=-3.549320e-01
5750=2.524939e-01
5758=-4.258835e-01
5759=2.417042e-01
5761=-1.278654e-01
5762=1.700432e-01
5763=1.482786e-01
5764=-2.826330e-01
5766=-3.014728e-01
5780=-1.541400e-02
5781=2.673547e-01
5782=3.855283e-01
5785=2.836558e-01
5786=-4.232070e-02
5788=-9.252576e-02
5789=3.316413e-03
5799=3.084167e-01
5801=-5.122247e-02
5804=3.870570e-02
5807=4.603808e-01
5818=-4.569516e-03
5819=1.782415e-02
5820=1.797539e-02
5821=9.099963e-02
5822=1.669311e-01
5823=1.827737e-01
5834=-2.073478e-01
5836=-1.955969e-01
5837=-2.795127e-02
5839=2.380149e-02
5840=3.831005e-01
5841=4.655908e-01
5842=6.363664e-03
5843=-1.354443e-02
5853=-1.035198e-01
5856=5.346781e-02
5861=9.194911e-02
5862=1.537691e+00
5864=-3.447407e-02
5872=-9.395842e-02
5875=1.371888e-01
5877=-6.519295e-03
5880=2.130530e-01
5881=3.635565e-04
5882=3.464509e-02
5913=-9.948567e-02
5914=3.000883e-05
5915=-6.616513e-02
5918=-9.767661e-02
5919=-2.620420e-03
5920=2.917285e-02
5921=3.761017e-01
5939=-2.661007e-06
5941=5.756162e-01
5948=-4.570493e-03
5956=6.960894e-02
5961=2.381471e-01
5987=-5.247444e-03
5994=-7.506791e-03
5995=9.991346e-02
6033=6.112998e-01
6041=1.333888e-02
6042=-7.406059e-02
6043=-6.505515e-02
6044=-6.367348e-02
6045=-2.565739e-02
6046=6.251417e-01
6047=3.105157e-01
6048=5.895116e-02
6049=-6.360494e-02
6050=1.615074e-04
6051=4.437319e-01
6052=-2.179220e-01
6054=-2.540712e-02
6056=1.335785e-02
6057=-1.607771e-05
6058=-1.048301e-01
6059=-3.298761e-02
6060=-7.380894e-01
6063=1.067422e-04
6064=-1.930929e-02
6066=4.267631e-01
6068=-5.007833e-04
6082=9.241397e-04
6089=-5.754594e-02
6092=8.406166e-03
6107=1.584069e-02
6119=1.764329e-01
6120=-6.230832e-01
6126=3.124713e-02
6138=-2.263764e-01
6139=3.939250e-02
6140=-5.758708e-03
6141=2.843386e-02
6142=1.003168e-01
6143=2.825576e-02
6144=4.024395e-03
6145=2.152525e-03
6146=2.834542e-01
6149=3.948095e-02
6150=-7.259431e-02
6151=4.857827e-02
6152=2.641778e-02
6153=1.011057e-01
6154=-4.534422e-02
6155=2.913947e-01
6157=1.505097e-01
6158=-1.073257e-01
6159=1.509409e-01
6160=-9.189846e-02
6161=-1.404262e-01
6164=1.785729e-01
6165=2.063085e-01
6171=-5.379158e-04
6176=6.913551e-02
6177=-1.347886e-01
6178=1.245158e-02
6180=-3.396088e-02
6182=-1.024996e-01
6183=1.356643e-01
6195=7.240103e-02
6196=-8.785579e-02
6197=6.837314e-02
6202=1.147494e-01
6204=5.835137e-03
6214=9.260396e-02
6215=-1.665139e-01
6216=4.179900e-02
6221=1.697386e-02
6232=-8.967537e-02
6234=3.937005e-02
6235=1.482075e-01
6236=-3.310792e-02
6237=-4.998149e-03
6238=-2.006464e-01
6239=1.214284e-02
6240=-1.235346e-01
6241=2.703710e-03
6242=9.327552e-02
6243=1.629302e-01
6244=4.133398e-02
6246=5.562214e-02
6247=-1.367559e-01
6248=-4.979190e-02
6249=-7.686583e-02
6250=5.200367e-02
6271=9.361095e-01
6272=3.779462e-01
6273=1.823401e-02
6274=1.433319e-01
6275=-1.941215e-01
6276=-9.589989e-02
6277=-1.432890e-02
6278=-6.033155e-01
6279=-4.496570e-01
6280=-1.970011e-01
6282=-5.718667e-02
6284=-5.552266e-02
6286=-1.169607e-02
6288=-4.968461e-03
6289=-3.686543e-02
6290=-7.949331e-01
6291=5.514590e-01
6292=8.874089e-02
6293=-2.348409e-01
6294=-4.892805e-01
6295=-8.002663e-01
6296=-5.791617e-02
6297=-1.572198e-03
6299=-2.179570e-02
6301=-3.928002e-01
6303=-2.382962e-05
6304=6.557433e-04
6305=-1.972080e-01
6306=-4.988874e-03
6309=-4.056343e-01
6310=-7.642435e-01
6311=6.222003e-01
6312=3.252335e-01
6313=5.704229e-01
6314=2.738765e-02
6315=-8.044893e-01
6316=-3.925924e-01
6317=-1.102633e+00
6318=-8.807998e-01
6319=-2.057770e-01
6322=-5.790897e-01
6324=-2.135381e-01
6326=-5.576719e-01
6328=-1.077793e-01
6329=-1.869169e-01
6331=6.108079e-01
6350=-2.039455e-01
6351=1.306082e+00
6352=-1.576190e-01
6369=-6.863160e-01
6371=2.045832e+00
6377=7.961867e-02
6385=-8.534345e-02
6386=-1.173742e+00
6387=-9.243690e-01
6388=-1.044487e-01
6390=4.957823e-02
6391=1.122278e+00
6392=1.129097e-04
6393=2.666621e-02
6394=-3.656766e-02
6396=-2.721052e-01
6398=-1.133860e-01
6400=-7.436360e-03
6404=-2.472710e-01
6405=-2.670443e-01
6407=-1.873321e-02
6409=8.290113e-03
6410=1.928084e-01
6411=1.270182e+00
6412=3.029332e-03
6415=-1.300725e-01
6421=-6.782481e-04
6423=-2.103646e-01
6424=-7.369216e-01
6425=-3.711845e-01
6426=1.410842e-01
6431=7.998700e-01
6432=2.743900e-01
6434=-4.643393e-02
6442=-2.371415e-01
6443=-4.818795e-01
6444=-4.247109e-01
6445=9.758491e-02
6446=-4.290489e-01
6447=-1.865583e-02
6450=1.305592e-01
6451=7.267491e-01
6452=2.988482e-02
6453=-3.275771e-01
6462=-1.820039e-01
6471=9.689110e-01
6472=5.052818e-03
6481=-5.232545e-01
6482=-7.229817e-01
6483=-5.036702e-01
6484=-1.163042e-02
6488=-1.810447e-01
6489=-5.765141e-02
6490=5.118147e-01
6491=1.021797e+00
6509=-2.636518e-06
6511=6.686110e-01
6518=-6.732934e-02
6519=-5.994900e-01
6520=-2.105284e-01
6521=-3.021554e-02
6525=-1.163676e-02
6526=1.078363e-01
6531=1.092951e+00
6537=-1.164872e-03
6540=2.764691e-03
6551=4.625829e-02
6556=-7.660562e-03
6557=-3.551461e-01
6558=-6.228697e-02
6559=-9.400782e-04
6560=-6.914127e-04
6564=-3.034440e-02
6565=3.429920e-02
6571=9.560007e-01
6578=-2.433708e-04
6591=9.561081e-01
6594=-1.100859e-02
6595=-3.788993e-01
6596=-2.567764e-01
6597=-1.999020e-02
6600=-7.102714e-03
6605=-4.763944e-04
6611=1.058358e+00
6613=1.528882e-01
6614=-6.210873e-02
6617=3.383354e-01
6620=3.008371e-02
6621=1.364841e-01
6651=2.699645e-01
6693=5.840752e-01
6771=2.153340e-02
6791=1.296421e-01
6811=7.380894e-01
6993=1.567909e-01
6995=2.238245e-03
6997=6.109490e-01
7000=1.871364e-02
7001=1.478114e-01
7012=6.481647e-02
7016=4.068286e-02
7031=1.183212e-01
7032=-8.799195e-02
7033=2.372635e-01
7034=-8.394508e-02
7038=1.626847e-01
7039=1.819244e-01
7042=-7.744077e-04
7049=-5.275125e-02
7050=5.660851e-03
7051=3.022939e-02
7052=3.880451e-02
7053=1.428156e-01
7054=-2.092678e-01
7055=1.796614e-02
7056=-6.664487e-02
7057=-8.713458e-03
7058=1.928515e-01
7059=-6.826954e-03
7060=-1.540107e-02
7061=-2.611426e-02
7063=-3.812130e-02
7067=-3.066761e-01
7069=2.569184e-01
7070=-3.213347e-01
7076=1.843850e-02
7087=-1.019202e-01
7088=3.152576e-02
7089=-3.482478e-02
7090=2.042417e-02
7091=4.568603e-02
7092=7.220870e-02
7093=1.313412e-01
7094=-8.902030e-02
7095=5.245265e-03
7096=1.784018e-01
7097=-1.180313e-01
7099=1.484585e-02
7103=-1.030378e+00
7104=-3.308937e-02
7107=6.698165e-02
7108=-6.873131e-03
7109=-2.154919e-03
7110=4.620368e-01
7111=3.754957e-02
7112=-2.873407e-01
7113=-5.225701e-02
7114=5.710430e-03
7115=-6.211546e-03
7116=3.862773e-03
7117=-8.699071e-01
7118=-3.962287e-02
7120=2.173050e-02
7121=2.133940e-02
7122=-3.394856e-02
7123=-1.184188e-01
7124=-5.537409e-02
7125=-7.237008e-02
7126=1.830359e-03
7127=-1.653646e-02
7128=-3.576999e-01
7129=2.654547e-01
7130=3.314835e-01
7131=4.886504e-02
7132=-8.823514e-02
7133=5.250645e-03
7134=2.085129e-01
7135=-2.099368e-01
7137=-2.990501e-02
7140=-2.414256e-04
7141=-9.940581e-02
7142=-3.767130e-03
7143=-4.635808e-01
7164=6.982952e-01
7165=-7.519216e-02
7166=7.281782e-01
7167=-3.016172e-02
7168=-6.992259e-02
7170=-3.902313e-02
7173=-4.053554e-02
7184=2.575145e-01
7185=7.776427e-02
7186=-3.938088e-01
7187=-8.673668e-02
7189=-6.367044e-02
7191=-2.312777e-01
7192=4.493782e-01
7196=8.584564e-03
7204=-7.248298e-01
7205=7.830299e-02
7206=8.255485e-01
7213=4.881411e-02
7222=-4.947177e-01
7223=1.537975e-01
7224=-2.917979e-04
7225=1.763757e-01
7226=1.541182e-02
7232=-2.335750e-01
7244=-7.424473e-02
7245=6.770306e-02
7262=4.610589e-01
7270=-2.709757e-02
7281=3.194586e-03
7282=2.780468e-02
7283=1.696827e-02
7284=-6.624885e-04
7285=2.208868e-03
7286=2.679949e-02
7287=-1.747964e-01
7298=-1.193553e-01
7300=-4.976737e-01
7302=1.466737e-01
7303=1.873717e-01
7304=2.919435e-01
7316=-4.190890e-02
7319=4.226774e-01
7324=3.524141e-01
7325=-7.979918e-02
7338=7.954928e-01
7340=-3.604250e-02
7343=1.003461e+00
7375=-5.595981e-03
7376=-7.409813e-03
7377=8.147440e-04
7384=2.844695e-01
7424=2.594026e-02
7433=2.966167e-03
7496=1.488818e+00
7506=5.918054e-01
7507=9.336524e-03
7508=-5.534208e-02
7511=2.937753e-03
7512=-9.546667e-03
7513=6.692401e-05
7514=-1.077922e-02
7515=7.092950e-02
7517=-8.821938e-02
7519=-5.475237e-03
7521=-2.879153e-03
7523=5.677847e-02
7525=4.048786e-02
